svm_type c_svc
kernel_type rbf
gamma 0.027777777777777776
nr_class 7
total_sv 400
rho -0.25233514953355518 -0.00287202997503779 -0.10878041454201734 -0.38678536621714377 0.4163007746713091 -0.064138665297135078 0.052092044446086699 -0.12654409464141464 -0.8770544574201069 0.45371346184397177 -0.39814823991362885 0.17876861488873735 0.16936153065345338 0.32700570481964264 -0.082797822523281439 -0.0761330849265867 0.57503802901474155 -0.45306004389193139 0.70094427789299252 0.066102132549259937 -0.58800708343781338
label 0 3 2 1 6 4 5
probA -5.4090698756322206 -4.7314307388447645 -5.2017288724602739 -5.3660254190995298 -5.8348810956570958 -4.9083341660824331 -5.3287729993734088 -4.8541445115469912 -4.6100806846800824 -5.7789703240959085 -4.4621817169422409 -4.2207778609030306 -3.6773908105286761 -5.3015477739710146 -3.8156488312492929 -4.5303840006432932 -5.4714199341001395 -4.5975572041088482 -5.3434723896569194 -4.9887548361683987 -5.055820064808386
probB 0.22869513544506054 -0.077261566418633867 0.059065210966663721 -0.045021267101413083 0.21715135038966588 0.15360924873115453 -0.48138178730308734 -0.14435651042866557 -0.38893369876581707 0.10326292009124974 -0.4708405106010185 0.14471706215733371 -0.044609871522713812 0.2658645772495089 0.28410811726013224 0.13391696035430026 0.42389143709271282 0.031365717223185013 0.69632068171443495 -0.63485168237504996 -0.22646306346101333
nr_sv 33 38 26 81 106 34 82
SV
0 0 4 4 0 0.27408098168788669 1:0.11130092 2:0.54635371 3:0.70739285 4:-0.97852944 5:-0.41681531 6:-0.45282342 7:-0.96823384 8:-0.20846517 9:0.18511115 10:0.75868019 11:-0.65547331 12:-0.97441154 13:0.62703523 14:0.12184851 15:-0.064971057 16:-0.7192001 17:-0.95478178 18:-0.86829899 19:-0.66720799 20:-0.9527206 21:-0.86626583 22:-0.60711524 23:-0.59153367 24:0.11604548 25:-0.096044788 26:0.51198621 27:0.4072147 28:-0.98759043 29:-0.98987348 30:-0.96344636 31:-0.99135404 32:-0.99326603 33:-0.98180823 34:0.36018739 35:0.1598906 36:0.76783487 
2.201027124589753 0 0 0 1.1014929684654213 0 1:-0.10188241 2:0.88291069 3:0.56836726 4:-0.97237956 5:-0.99778845 6:-0.99793301 7:-0.9634275 8:0.33068922 9:-0.35345194 10:0.97839101 11:-0.97058515 12:-0.99603425 13:0.03485551 14:0.20797748 15:0.050324243 16:-0.99148799 17:-0.94544154 18:-0.99900999 19:-0.99150862 20:-0.94543979 21:-0.99875977 22:-1 23:0.35479177 24:-0.480589 25:-0.089703666 26:0.55345525 27:0.43541022 28:-0.99991683 29:-0.99999254 30:-0.99980138 31:-0.99992599 32:-0.99999463 33:-0.99990157 34:0.51735254 35:-0.050591542 36:-0.12773244 
0 0 0 0 1.3845748864711322 0 1:-0.0037501933 2:0.10248812 3:0.99798726 4:-0.99999997 5:-0.99999997 6:-1 7:-0.99977647 8:-0.9920829 9:0.9919561 10:0.90796682 11:-0.87019134 12:-0.9964843 13:0.014585995 14:0.19515448 15:0.092266566 16:-0.9999932 17:-0.99999425 18:-0.9999999 19:-0.99999323 20:-0.99999423 21:-0.99999991 22:-0.91249567 23:0.27984082 24:-0.39798792 25:-0.092773479 26:0.55507641 27:0.43300767 28:-0.99998512 29:-0.99998654 30:-0.99944486 31:-0.99998873 32:-0.99999233 33:-0.99973379 34:0.80835335 35:-0.84864414 36:-0.96594782 
0 0.082042805758338805 4 1.9969110855608476 0 0.51991561035619072 1:-0.098044806 2:0.81822743 3:0.60556947 4:-0.95455289 5:-0.89258586 6:-0.86677114 7:-0.95651219 8:0.19094911 9:-0.22186979 10:-0.28746494 11:0.23393769 12:-0.98000364 13:-0.48118746 14:-0.072063558 15:-0.079831954 16:-0.47280281 17:-0.56060293 18:-0.58386476 19:-0.44167702 20:-0.53278759 21:-0.58463421 22:-0.32923053 23:-0.89591038 24:0.409185 25:-0.095297123 26:0.49372123 27:0.42536071 28:-0.95634105 29:-0.98875693 30:-0.92505856 31:-0.96959783 32:-0.99163951 33:-0.96401641 34:0.079548481 35:0.66685496 36:0.13729956 
0 0 0.16952997812832829 0 1.2626970647361038 1.1517087208875247 1:-0.028470141 2:0.38641615 3:0.67503674 4:-0.7113849 5:-0.3400417 6:0.12568786 7:-0.85937202 8:-0.42289556 9:0.29065435 10:-0.76246974 11:0.89481628 12:-0.93546642 13:-1 14:-0.031120163 15:0.93418749 16:-0.55583979 17:-0.70768633 18:-0.77431987 19:-0.40972952 20:-0.68772453 21:-0.67228099 22:0.39010624 23:-0.59002185 24:-0.50435463 25:-0.081331002 26:0.51600455 27:0.45388317 28:-0.98998067 29:-0.98546347 30:-0.93149713 31:-0.99287172 32:-0.99092246 33:-0.96676621 34:-0.67284755 35:-0.32283008 36:0.34867214 
0 0 0.95511539288402336 0.28052903320291811 0 0 1:0.010177458 2:0.037149316 3:0.99999877 4:-0.99999985 5:-0.99999981 6:-1 7:-0.99998027 8:-0.99999993 9:0.99999508 10:-0.21535862 11:-0.99355291 12:0.29377576 13:0.0093762744 14:0.21142963 15:0.080117386 16:-0.99999938 17:-0.99999593 18:-0.99999993 19:-0.99999448 20:-0.99988517 21:-0.99997747 22:0.21593946 23:-0.06911661 24:0.010812523 25:-0.085870749 26:0.55647215 27:0.4319494 28:-0.99999545 29:-0.99999651 30:-0.99977724 31:-0.99993574 32:-0.99999679 33:-0.99989091 34:0.52959719 35:0.63108518 36:0.62743259 
0 0 0 0.49045081854099465 0 0 1:-0.014072744 2:0.10338458 3:0.99777448 4:-0.99999987 5:-0.99999998 6:-1 7:-0.99913158 8:-0.9918639 9:0.99110666 10:-0.073265269 11:0.6169373 12:-0.83032996 13:0.015846739 14:0.19548529 15:0.092059174 16:-0.99998776 17:-0.99994391 18:-0.99999543 19:-0.99998783 20:-0.99994381 21:-0.99999549 22:0.12111559 23:-0.047757564 24:-1 25:-0.094258061 26:0.55609955 27:0.43506756 28:-0.99975625 29:-0.99990739 30:-0.99981023 31:-0.99983006 32:-0.99994649 33:-0.99990693 34:-1 35:-1 36:1 
0 0 0 0.62952415772498949 0 0 1:0.055853866 2:0.12435634 3:0.96284263 4:-0.97891237 5:-0.81857916 6:-0.93470395 7:-0.98518424 8:-0.88955474 9:0.87612415 10:0.73814053 11:-0.66860992 12:-0.96583498 13:0.70207392 14:0.075356654 15:0.0065562719 16:-0.66323413 17:-0.95985278 18:-0.88400232 19:-0.5975521 20:-0.95422346 21:-0.88434943 22:-0.24101601 23:-0.7182061 24:-0.28740283 25:-0.098388942 26:0.53024837 27:0.45627631 28:-0.98892814 29:-0.99412707 30:-0.96837314 31:-0.99226951 32:-0.99633414 33:-0.98434064 34:0.075785973 35:0.16067634 36:0.49295667 
0 0 0 0.41831987744648969 0 0.49650510469506859 1:0.00035554935 2:-0.03554174 3:0.99634794 4:-0.99658506 5:-0.99400389 6:-0.99996345 7:-0.99828141 8:-0.9869718 9:0.98542883 10:0.50779805 11:0.61963213 12:0.93056566 13:0.12270499 14:0.20148255 15:0.14871298 16:-0.96239032 17:-0.9195822 18:-0.86059308 19:-0.96104652 20:-0.91966427 21:-0.86185356 22:-0.82343982 23:0.033734014 24:-0.40113619 25:-0.10057879 26:0.54334731 27:0.44203123 28:-0.98673578 29:-0.99402512 30:-0.97379858 31:-0.99071825 32:-0.99652315 33:-0.98737217 34:0.11290349 35:-0.1633679 36:-0.18629753 
0 0 0.29234475381732322 1.0642797145480218 0 0 1:-0.14801847 2:-0.020749959 3:0.97631797 4:-0.92840075 5:-0.98751539 6:-0.99757132 7:-0.91837314 8:-0.98712177 9:0.90719985 10:-0.13621805 11:0.91683484 12:0.049858614 13:0.10294383 14:0.17852473 15:0.32639548 16:-0.93831462 17:-0.31723654 18:-0.28564388 19:-0.9377505 20:-0.3179813 21:-0.28640484 22:0.19851419 23:-0.25504658 24:-0.05197076 25:-0.11717153 26:0.54525342 27:0.44552625 28:-0.9639388 29:-0.99158574 30:-0.73878716 31:-0.9743508 32:-0.99515321 33:-0.87466378 34:0.1985745 35:-0.4087809 36:-0.42929792 
1.3724669778014769 0 2.4461863402630288 2.1561875436861309 0.68802358896758709 0.93871076855956825 1:0.82488928 2:-0.06364795 3:0.51875668 4:-0.82772369 5:-0.99803085 6:-0.80140222 7:0.40220146 8:-0.98003715 9:-0.39509277 10:-0.65182547 11:-0.97231017 12:0.5026119 13:0.048345473 14:-0.28302777 15:0.27417719 16:-0.99674955 17:-0.77944676 18:-0.96843357 19:-0.99661884 20:-0.68877781 21:-0.96393829 22:-0.28347991 23:0.30750866 24:-0.90789542 25:-0.083210744 26:0.55785384 27:0.41439769 28:-0.99915691 29:-0.99976553 30:-0.99865648 31:-0.99930364 32:-0.99986186 33:-0.99900082 34:-0.55309518 35:-0.062034271 36:0.1049888 
0 0 0 0.57752030667247845 0 0 1:0.13995645 2:0.28338658 3:0.87814354 4:-0.47920552 5:-0.89078148 6:-0.97008639 7:-0.71579159 8:-0.82936207 9:0.55229194 10:0.36785388 11:-0.89240773 12:-0.65029588 13:-0.073548165 14:0.53449213 15:-0.18382845 16:-0.78805887 17:-0.6690952 18:-0.89472759 19:-0.78882742 20:-0.62352316 21:-0.88473947 22:0.20713258 23:-0.24544248 24:-0.20911815 25:-0.093856906 26:0.53434241 27:0.43573792 28:-0.97909271 29:-0.99649041 30:-0.96810826 31:-0.98544221 32:-0.99777824 33:-0.98471003 34:0.038286493 35:-0.19850732 36:0.45279224 
0 0 0 0 0 2.9513188265684174 1:0.012517729 2:0.031238547 3:0.99985576 4:-0.99986983 5:-0.99923047 6:-0.99999876 7:-0.99987718 8:-0.99952472 9:0.99942344 10:0.68335855 11:0.5869424 12:0.94945928 13:0.043623783 14:0.19914896 15:0.028529459 16:-0.98833631 17:-0.98997291 18:-0.99402948 19:-0.98832401 20:-0.98997773 21:-0.99349908 22:-0.046741286 23:-0.23892484 24:0.080342024 25:-0.088709292 26:0.55691483 27:0.4372292 28:-0.99713873 29:-0.99971977 30:-0.99101361 31:-0.9979827 32:-0.99983816 33:-0.99567987 34:0.55713554 35:-0.29039442 36:-0.70856996 
4 0 0 1.440770479597814 0.47155878857426964 0 1:-0.040298187 2:1 3:0.32325301 4:-0.99781338 5:-0.98039837 6:-0.79369113 7:-0.99455599 8:0.73356713 9:-0.7218339 10:-0.59485871 11:0.61400338 12:-0.98825845 13:-0.21565438 14:0.31825583 15:0.18063505 16:-0.94747465 17:-0.9886812 18:-0.98601721 19:-0.94018691 20:-0.98261862 21:-0.98503985 22:-0.10490332 23:0.045534952 24:-0.027110929 25:-0.088522768 26:0.5435876 27:0.43247306 28:-0.99212518 29:-0.99725851 30:-0.99568823 31:-0.99448986 32:-0.99836981 33:-0.99793243 34:-0.20843788 35:-0.28333432 36:-0.1077667 
0 0 0 0 0 3.7165752413458164 1:0.28593093 2:0.70471217 3:0.627638 4:-0.8406567 5:-0.76485482 6:-0.87183914 7:-0.77017544 8:-0.046892113 9:-0.16913608 10:-0.9314463 11:0.92247035 12:-0.98160832 13:-0.40822697 14:-0.021081821 15:0.54160782 16:-0.9399148 17:-0.98139311 18:-0.9691985 19:-0.9143425 20:-0.9628572 21:-0.93972896 22:-0.19810143 23:-0.94532789 24:0.18457478 25:-0.077102964 26:0.53949578 27:0.42857506 28:-0.9995234 29:-0.99977267 30:-0.99837149 31:-0.9993954 32:-0.99974647 33:-0.99919568 34:-0.31688436 35:0.30150716 36:-0.35365628 
0 0 0 0 0.98938732981117583 0 1:-0.022113983 2:0.084577078 3:0.99856359 4:-0.99999997 5:-1 6:-1 7:-0.99833801 8:-0.99583238 9:0.99425775 10:0.53238602 11:0.70844351 12:-0.22205769 13:0.015139096 14:0.19478945 15:0.092552009 16:-0.99999943 17:-0.99998387 18:-0.99999984 19:-0.99999946 20:-0.99998393 21:-0.99999986 22:-0.22049823 23:0.13799468 24:-0.57900307 25:-0.093842605 26:0.5553728 27:0.43440787 28:-0.99997911 29:-0.99999694 30:-0.99994719 31:-0.99998547 32:-0.99999817 33:-0.9999741 34:0.294 35:0.74703187 36:0.4623452 
0.58487222343887224 0.88996715621425282 2.0490688560451544 1.235272798053741 1.5657611042250288 1.9780830887718721 1:0.13670585 2:0.6746751 3:0.33807939 4:-0.54505248 5:-0.24914096 6:0.13570875 7:-0.74899722 8:0.15408249 9:-0.38890706 10:-0.7542237 11:0.83289001 12:-0.95058641 13:1 14:0.1975011 15:-1 16:-0.72345764 17:-0.60397381 18:-0.22152777 19:-0.58468413 20:-0.60446366 21:-0.05459554 22:0.084804929 23:-0.69888641 24:-0.69612117 25:-0.055390112 26:0.50570668 27:0.43640163 28:-0.95228603 29:-0.99275223 30:-0.97702836 31:-0.96532851 32:-0.99460646 33:-0.98898211 34:0.27881525 35:0.60303226 36:0.29137029 
0.87301230927358797 0 0 0.41724898500144014 0 0 1:0.22502299 2:0.81111819 3:0.58591284 4:-0.99659983 5:-0.8649155 6:-0.86178328 7:-0.90454719 8:0.18509237 9:-0.26704014 10:0.78715797 11:-0.8633545 12:-0.96512272 13:-0.58626846 14:0.28033958 15:0.10043143 16:-0.83725804 17:-0.99168883 18:-0.99047823 19:-0.78603389 20:-0.98878093 21:-0.9905869 22:0.27733311 23:-0.29089586 24:-0.35774605 25:-0.091320079 26:0.52173516 27:0.42114181 28:-0.9958814 29:-0.99747548 30:-0.96575678 31:-0.99712642 32:-0.99798717 33:-0.98343854 34:0.27426332 35:0.041078862 36:0.24062261 
0 1.3424007602042465 4 3.056612941974707 0 1.0730997581402966 1:-0.041938819 2:0.00081242678 3:0.99037768 4:-0.94466165 5:-0.99154318 6:-0.99752109 7:-0.96880166 8:-0.99304425 9:0.96252651 10:0.65355349 11:0.95777498 12:0.61880415 13:-0.10083718 14:0.068827821 15:0.84093673 16:-0.95997492 17:-0.385681 18:-0.55918041 19:-0.95837565 20:-0.3801281 21:-0.48175153 22:0.10173431 23:-0.047670721 24:-0.0856804 25:-0.14025308 26:0.55770963 27:0.43631699 28:-0.96961106 29:-0.99197695 30:-0.74009577 31:-0.9767123 32:-0.99542096 33:-0.87542272 34:0.27238929 35:-0.46317007 36:-0.44145466 
0 0 0 3.3648816769784551 0 4 1:0.099976351 2:0.57600124 3:0.68820592 4:-0.9795161 5:-0.39733857 6:-0.47973659 7:-0.97311627 8:-0.14036858 9:0.1224736 10:0.90972286 11:-0.83067162 12:-0.95773225 13:-0.28881008 14:0.28320768 15:-0.072832641 16:-0.32033527 17:-0.95327687 18:-0.95123518 19:-0.3130164 20:-0.95021791 21:-0.94779807 22:-0.50414767 23:-0.42218974 24:0.29965491 25:-0.10446011 26:0.48924847 27:0.42433229 28:-0.98478534 29:-0.99028997 30:-0.92543239 31:-0.98929319 32:-0.9922184 33:-0.96417824 34:-0.07619543 35:-0.13273444 36:0.29405476 
0 0.64539791647202782 1.5125511748793821 0 0 0 1:0.21750066 2:0.16822889 3:0.87100618 4:-0.74950757 5:-0.68904106 6:-0.74993945 7:-0.79262633 8:-0.80298062 9:0.60153286 10:0.16892607 11:-0.42365165 12:-0.94839312 13:0.8343626 14:-0.025545625 15:-0.40722944 16:-0.73689853 17:-0.70784727 18:-0.24903344 19:-0.64152925 20:-0.68887617 21:-0.22140387 22:0.24856653 23:-0.91607709 24:-0.68265172 25:-0.072869092 26:0.53978275 27:0.446846 28:-0.955786 29:-0.99626439 30:-0.97903165 31:-0.96878456 32:-0.99775049 33:-0.98977863 34:0.36637006 35:0.63125615 36:0.14672428 
0 0 0 0 0.63413837521364014 0.20883440236860765 1:0.018356437 2:0.038565597 3:0.99993266 4:-0.99994426 5:-0.9999947 6:-0.99999996 7:-0.99971672 8:-0.9999939 9:0.99973061 10:-0.998385 11:-0.98918364 12:0.98102111 13:0.010035115 14:0.18260525 15:0.12318959 16:-0.99994586 17:-0.99875541 18:-0.99585225 19:-0.9999425 20:-0.99869821 21:-0.99576385 22:0.99877449 23:-0.56962668 24:-0.57073103 25:-0.094487813 26:0.55198914 27:0.43414653 28:-0.99927907 29:-0.99964206 30:-0.99988283 31:-0.99949751 32:-0.99979142 33:-0.99994363 34:0.94516484 35:-0.34308674 36:-0.34882212 
0 0 0 0 0 0.14546289125706116 1:-0.091998314 2:0.49646422 3:0.88691255 4:-0.99377395 5:-0.974724 6:-0.98960795 7:-0.9777188 8:-0.59452081 9:0.57667134 10:0.83046971 11:-0.81476745 12:-0.99267767 13:-0.17498928 14:0.32137424 15:0.32101963 16:-0.97372388 17:-0.97728507 18:-0.95558705 19:-0.96869284 20:-0.97092593 21:-0.94840725 22:-0.65110093 23:-0.75298224 24:0.76416313 25:-0.091504115 26:0.54663714 27:0.43807834 28:-0.99881853 29:-0.99946409 30:-0.99731181 31:-0.99917239 32:-0.99965866 33:-0.99869177 34:-0.8125569 35:0.26086734 36:-0.49473581 
0 0 0 0 1.2958831406034446 0 1:-0.41474745 2:0.43818466 3:0.77923841 4:-0.91057588 5:-0.88276323 6:-0.87495147 7:-0.60647107 8:-0.63888485 9:0.25646276 10:-0.98697071 11:0.99109017 12:-0.98267368 13:0.216057 14:0.41365136 15:0.29132758 16:-0.9562128 17:-0.92126274 18:-0.93903079 19:-0.95073146 20:-0.90227105 21:-0.9339343 22:0.90210229 23:0.68956482 24:0.64733097 25:-0.088161261 26:0.55856761 27:0.43744054 28:-0.99472932 29:-0.99925827 30:-0.99744317 31:-0.99629928 32:-0.99957016 33:-0.99875995 34:-0.85540613 35:-0.52821355 36:0.23142734 
0 0 0 0.75177713440324534 0 0.21121378830960491 1:0.017103938 2:0.038685263 3:0.99994718 4:-0.99996902 5:-0.99998468 6:-0.99999997 7:-0.99978197 8:-0.99998796 9:0.99978871 10:-0.91837637 11:-0.9507561 12:0.96970068 13:-0.0024747218 14:0.17850909 15:0.24176154 16:-0.99818405 17:-0.99424056 18:-0.95037481 19:-0.99815502 20:-0.99414264 21:-0.94769134 22:0.99536423 23:-0.93820231 24:-0.88713576 25:-0.089955075 26:0.5567939 27:0.43199908 28:-0.99740847 29:-0.99989334 30:-0.9990744 31:-0.99818136 32:-0.99993738 33:-0.9995542 34:-0.050870133 35:0.65546481 36:0.10675217 
0 0 0.17709097918965841 0 2.0018019571548851 0 1:0.014032635 2:0.036868802 3:0.99997892 4:-0.99999756 5:-0.99999827 6:-1 7:-0.99990037 8:-0.99999888 9:0.99991567 10:0.89919992 11:-0.99508361 12:-0.90085806 13:0.013447258 14:0.20118531 15:0.086682582 16:-0.99999906 17:-0.99999743 18:-0.99999812 19:-0.99999865 20:-0.99998099 21:-0.99999325 22:0.15794081 23:-0.11709755 24:0.55380958 25:-0.088340827 26:0.55629686 27:0.43300646 28:-0.9999925 29:-0.99999749 30:-0.99993608 31:-0.999966 32:-0.99999761 33:-0.99996923 34:0.33872674 35:0.40866139 36:0.54735541 
0 0 0 0 4 0 1:0.012190606 2:0.029708267 3:0.99993201 4:-0.99998527 5:-0.99976602 6:-0.99999994 7:-0.99993945 8:-0.99977067 9:0.99972804 10:0.75565527 11:0.72510191 12:0.96618621 13:0.012686745 14:0.20077856 15:0.088300094 16:-0.99999663 17:-0.99999378 18:-0.99993185 19:-0.99999577 20:-0.99997936 21:-0.99993017 22:0.21416049 23:-0.20635162 24:-0.10982788 25:-0.089572426 26:0.55504603 27:0.43340339 28:-0.99983243 29:-0.99846874 30:-0.99995678 31:-0.99986616 32:-0.99912683 33:-0.9999794 34:0.34235706 35:-0.061008082 36:-0.063704771 
0.95102840180295445 0 0 1.9033464733176289 0 0 1:-0.010842404 2:0.032650311 3:0.99973581 4:-0.9991595 5:-0.99994609 6:-0.99999922 7:-0.99897628 8:-0.99993245 9:0.9989435 10:0.64806807 11:0.94598671 12:0.6758186 13:0.013626203 14:0.24059297 15:0.18166978 16:-0.9991952 17:-0.90944963 18:-0.98285609 19:-0.99920214 20:-0.90872519 21:-0.98189077 22:0.71096455 23:-0.20196157 24:-0.25196738 25:-0.07624875 26:0.56155736 27:0.43351576 28:-0.99499295 29:-0.99894426 30:-0.97564156 31:-0.99621213 32:-0.99937513 33:-0.98832534 34:0.074969397 35:-0.52317587 36:0.21302208 
0 0 1.1095709852733562 1.5614908236586971 1.7851014359907409 0 1:0.010607463 2:0.035832726 3:0.99999483 4:-0.99999885 5:-0.99998852 6:-1 7:-0.9999739 8:-0.99999032 9:0.99997933 10:-0.93619506 11:-0.87322053 12:0.98664517 13:0.0096243563 14:0.21165908 15:0.080170907 16:-0.99999963 17:-0.99999639 18:-0.99999992 19:-0.99999514 20:-0.99988257 21:-0.99997765 22:0.24695323 23:0.043094435 24:0.048033148 25:-0.086098501 26:0.55758048 27:0.43208331 28:-0.99999594 29:-0.99999562 30:-0.99980546 31:-0.99993956 32:-0.99999386 33:-0.99990483 34:0.41619436 35:0.70692635 36:0.55825853 
0 2.2804206431605931 0.48134626508587236 0 0 2.953412254690047 1:0.11511415 2:0.47063566 3:0.7716445 4:-0.97246041 5:-0.41185755 6:-0.64788001 7:-0.96372979 8:-0.33850318 9:0.30945176 10:0.74218789 11:-0.74595049 12:-0.96294976 13:-0.076878965 14:0.19319374 15:-0.099283719 16:-0.14067422 17:-0.908707 18:-0.84530942 19:-0.14720638 20:-0.90881967 21:-0.84178874 22:-0.49362532 23:-0.36024708 24:-0.088451678 25:-0.088339106 26:0.47680368 27:0.43554829 28:-0.98073334 29:-0.98944276 30:-0.91205876 31:-0.98655577 32:-0.99080408 33:-0.95784673 34:0.042658457 35:-0.072053887 36:0.32222278 
0 0.23610420734094134 0.86780724574150681 2.1306480373583034 1.524282420992717 1.6788403538546661 1:0.80299078 2:-0.036233136 3:0.5274906 4:-0.74708979 5:-0.99895874 6:-0.73754219 7:0.3710826 8:-0.98941483 9:-0.35528455 10:-0.96582251 11:-0.97336085 12:0.97892979 13:-0.03330602 14:0.69544976 15:-0.13539824 16:-0.99898204 17:-0.80033112 18:-0.98273807 19:-0.99864865 20:-0.70070301 21:-0.97527093 22:-0.64891418 23:0.40139556 24:-0.83533714 25:-0.1066784 26:0.55637521 27:0.43472641 28:-0.99908184 29:-0.9997984 30:-0.99891401 31:-0.99919629 32:-0.99988397 33:-0.99947828 34:-0.36984129 35:-0.31466767 36:0.11936564 
0 4 4 0.45378816591218463 0 2.8382732440682323 1:0.037284477 2:0.36779033 3:0.84365932 4:-0.85433305 5:-0.53056418 6:-0.82661626 7:-0.9284532 8:-0.54759821 9:0.4818885 10:-0.74456129 11:0.57559949 12:-0.92469649 13:-0.47852363 14:-0.0047858114 15:0.24650703 16:-0.3676976 17:-0.31406742 18:-0.44524528 19:-0.33790598 20:-0.29905865 21:-0.44861344 22:-0.21088909 23:-0.73129242 24:0.35462675 25:-0.10434906 26:0.47908018 27:0.4625765 28:-0.93898153 29:-0.98674747 30:-0.81045167 31:-0.9574022 32:-0.98944952 33:-0.908334 34:0.13840512 35:0.26377062 36:-0.038939721 
0 0 0 0.56167254044659065 0 0 1:0.0350481 2:0.033351318 3:0.99847813 4:-0.99065577 5:-0.99976439 6:-0.99991047 7:-0.99396799 8:-0.99984699 9:0.99394654 10:-0.84636163 11:-0.97839967 12:0.74721094 13:-0.0041299569 14:0.13613425 15:0.22043655 16:-0.99965482 17:-0.96977748 18:-0.88908628 19:-0.99960358 20:-0.96844618 21:-0.88803792 22:-0.09509737 23:-0.26122315 24:-0.32013652 25:-0.084938388 26:0.55203634 27:0.4319398 28:-0.99141112 29:-0.99911145 30:-0.99780645 31:-0.99394313 32:-0.99948899 33:-0.9989463 34:-0.55391866 35:-0.39883618 36:0.26821462 
-0 0.79337940788998895 0 0 0 0.29247397037168332 1:0.15907375 2:-0.99254138 3:-0.043597003 4:-0.99989546 5:-0.99999836 6:-0.99994465 7:-0.95428858 8:0.97133071 9:-0.99675664 10:0.99218209 11:0.78125597 12:0.69600749 13:0.018738317 14:0.19412979 15:0.089632162 16:-0.99973677 17:-0.9959895 18:-0.99889754 19:-0.99973734 20:-0.99599437 21:-0.99891007 22:-0.85138823 23:-0.95323881 24:0.88793244 25:-0.094003162 26:0.55716314 27:0.43357285 28:-0.99954709 29:-0.99995888 30:-0.9998367 31:-0.9996846 32:-0.99997397 33:-0.99992187 34:-0.44760233 35:0.43904541 36:-0.21292863 
-0 0 0 4 0 0 1:0.20335873 2:-0.98206791 3:-0.07379601 4:-0.9986016 5:-0.99985856 6:-0.99435971 7:-0.92321961 8:0.93150928 9:-0.98780116 10:0.96223643 11:-0.81194812 12:-0.9332215 13:0.074861773 14:0.20938546 15:0.099604837 16:-0.99821492 17:-0.98055467 18:-0.9927793 19:-0.99771244 20:-0.9804936 21:-0.99286129 22:-0.15789739 23:0.055084424 24:0.1228644 25:-0.097242183 26:0.55728358 27:0.42898595 28:-0.99682919 29:-0.99931355 30:-0.99724785 31:-0.9977802 32:-0.99960569 33:-0.99866092 34:0.045792726 35:-0.0030684941 36:0.56529514 
-1.7945857868260964 0.96443435730353222 4 4 0 1.602274192415996 1:0.13342754 2:-0.99524561 3:-0.057357049 4:-0.99989606 5:-0.99999887 6:-0.99759834 7:-0.96838517 8:0.98169767 9:-0.99319541 10:-0.53612555 11:0.85961854 12:-0.87878457 13:-0.012585078 14:0.18243056 15:0.088175212 16:-0.99985895 17:-0.99798709 18:-0.99992461 19:-0.99974786 20:-0.99792914 21:-0.99992287 22:0.76067719 23:-0.3147048 24:-0.24662821 25:-0.096050006 26:0.55812703 27:0.43037082 28:-0.99980527 29:-0.99998348 30:-0.99984303 31:-0.99985924 32:-0.99998527 33:-0.99991515 34:-0.14937258 35:-0.093921411 36:0.26640179 
-0 0 4 0 0 4 1:0.16770844 2:-0.9900089 3:-0.064094968 4:-0.99998985 5:-0.99999991 6:-0.999936 7:-0.9490039 8:0.96164574 9:-0.9923507 10:0.51695623 11:0.79380824 12:-0.11251141 13:0.013622136 14:0.18475372 15:0.092712571 16:-0.99997514 17:-0.99945766 18:-0.9999601 19:-0.99997503 20:-0.99941854 21:-0.99996061 22:-0.49065725 23:-0.79234191 24:0.26820196 25:-0.094967285 26:0.55788424 27:0.43257137 28:-0.99987401 29:-0.99999501 30:-0.99994451 31:-0.99991085 32:-0.99999262 33:-0.99997263 34:0.32761156 35:0.38552525 36:0.44829682 
-0 0 0 0 0 4 1:0.24249967 2:-0.97654439 3:0.0040766509 4:-0.9982141 5:-0.99990889 6:-0.99846982 7:-0.88968052 8:0.91060659 9:-1 10:0.99739004 11:0.97003386 12:0.95780413 13:0.007529894 14:0.15544437 15:0.11740936 16:-0.99878791 17:-0.99446184 18:-0.9972097 19:-0.99879033 20:-0.99385318 21:-0.99715211 22:-0.30733017 23:-0.88578847 24:0.17835926 25:-0.09610114 26:0.55664738 27:0.43358433 28:-0.99782576 29:-0.99955521 30:-0.99895213 31:-0.99848067 32:-0.99974484 33:-0.9994979 34:0.18416212 35:-0.15925131 36:0.0069145745 
-0 0 4 4 0 4 1:0.14404046 2:-0.99296806 3:-0.0728707 4:-0.99998649 5:-0.99999967 6:-0.99983607 7:-0.96290983 8:0.97296396 9:-0.98991817 10:-0.066774369 11:0.67964865 12:-0.77751428 13:0.013532664 14:0.19591061 15:0.086855037 16:-0.99992727 17:-0.99959942 18:-0.99981383 19:-0.99992755 20:-0.99959942 21:-0.99981153 22:0.16728537 23:-0.64991931 24:0.043367169 25:-0.096314888 26:0.55800488 27:0.43160796 28:-0.99980426 29:-0.99998558 30:-0.99989904 31:-0.99985728 32:-0.99998686 33:-0.99994812 34:0.12772365 35:0.15259433 36:0.28832304 
-1.1736102416194687 0.0011208305847055892 0 0 0 0 1:0.15417603 2:-0.98980516 3:-0.092366273 4:-0.9999856 5:-0.99999868 6:-0.99992921 7:-0.95722419 8:0.96086834 9:-0.98351815 10:0.98138246 11:-0.9396055 12:-0.98748733 13:0.039325051 14:0.13052842 15:0.093664049 16:-0.9996564 17:-0.99710554 18:-0.99994254 19:-0.9995747 20:-0.99546588 21:-0.99994306 22:-0.88072631 23:0.64574482 24:-0.48388936 25:-0.090504515 26:0.55831871 27:0.43161474 28:-0.99991119 29:-0.99998955 30:-0.99997393 31:-0.99992781 32:-0.99998807 33:-0.99998404 34:0.07241648 35:-0.67673855 36:-0.11032618 
-0 0 0 4 0 0 1:0.14381004 2:-0.98820275 3:-0.11484227 4:-0.99907255 5:-0.99990175 6:-0.99408282 7:-0.96259686 8:0.95480577 9:-0.97224597 10:0.69564589 11:-0.34075697 12:-0.9098945 13:-0.015464455 14:0.14637075 15:0.015054157 16:-0.99804648 17:-0.99265391 18:-0.99555042 19:-0.99792727 20:-0.99173051 21:-0.99471941 22:0.081629621 23:-0.64945472 24:-0.17913874 25:-0.087376974 26:0.56083545 27:0.43316849 28:-0.99839315 29:-0.9998266 30:-0.99947724 31:-0.99884118 32:-0.99988298 33:-0.99974945 34:0.0051687158 35:-0.2967122 36:0.40982602 
-0.46245518428738841 0 0 0 0 0 1:0.18656052 2:-0.97473478 3:-0.15533056 4:-0.99929706 5:-0.99978176 6:-0.98661725 7:-0.93601345 8:0.90385939 9:-0.94787531 10:-0.004507958 11:0.33498877 12:-0.94145559 13:0.089681618 14:0.18281123 15:0.050104214 16:-0.99943338 17:-0.99417712 18:-0.99750711 19:-0.99863027 20:-0.99412759 21:-0.99727279 22:0.27014442 23:0.32083373 24:0.78348277 25:-0.093951147 26:0.55777112 27:0.43420615 28:-0.99944615 29:-0.9998938 30:-0.99903984 31:-0.99961435 32:-0.99993525 33:-0.99953952 34:0.11231855 35:-0.0062316763 36:-0.20635709 
-0 0 0.91662561672879939 0 0 0 1:0.25811727 2:-0.97239075 3:-0.028376203 4:-0.99926286 5:-0.9999644 6:-0.9992861 7:-0.87518727 8:0.89495326 9:-0.99871678 10:0.99948001 11:0.89099596 12:0.87811371 13:0.00055513139 14:0.20648346 15:0.098248982 16:-0.99980586 17:-0.99787656 18:-0.99937837 19:-0.99977643 20:-0.99782442 21:-0.99938111 22:0.14770619 23:-0.54396898 24:-0.54093274 25:-0.093367575 26:0.55765406 27:0.43416901 28:-0.99898565 29:-0.9998753 30:-0.99957009 31:-0.99929359 32:-0.99992504 33:-0.99979371 34:0.46730659 35:0.55909495 36:0.40962251 
-1.1323257677756646 0.29308101367703659 0 0 2.5864418491169081 0 1:0.19658132 2:-0.97646202 3:-0.11786927 4:-0.99265431 5:-0.99885676 6:-0.97699991 7:-0.92553413 8:0.91085478 9:-0.96508012 10:0.96361853 11:-0.93861949 12:-0.99217528 13:0.087676629 14:0.27504142 15:0.15774012 16:-0.9929517 17:-0.98186708 18:-0.99624613 19:-0.99225009 20:-0.97932153 21:-0.99566187 22:-0.40496348 23:0.51768828 24:-0.40073061 25:-0.10371639 26:0.55515116 27:0.44308047 28:-0.99483169 29:-0.99942449 30:-0.99654888 31:-0.99630362 32:-0.99967182 33:-0.99825787 34:0.58805873 35:-0.40426816 36:-0.21130623 
-0.12116024587545482 0.013705498637108363 4 0 0.38352085255704732 0 1:0.16519322 2:-0.98935085 3:-0.078114945 4:-0.99983848 5:-0.99999728 6:-0.99997121 7:-0.95051435 8:0.95913468 9:-0.98838317 10:0.99501721 11:0.86317188 12:0.80733024 13:0.017278294 14:0.19464083 15:0.082079809 16:-0.99992434 17:-0.99586868 18:-0.99989078 19:-0.99992441 20:-0.99587386 21:-0.99987625 22:-0.84876197 23:-0.71656442 24:0.61137887 25:-0.09458211 26:0.5577787 27:0.43369914 28:-0.99943367 29:-0.99998902 30:-0.99989558 31:-0.99960502 32:-0.99998953 33:-0.99995007 34:0.55748929 35:0.66390524 36:0.53992237 
-2.2742645746156547 0.9997113750863087 1.4638229659692827 4 0.39606825637187332 3.648565935570649 1:0.17223349 2:-0.98493038 3:-0.10197826 4:-0.99917605 5:-0.99991959 6:-0.99009409 7:-0.94570372 8:0.94234014 9:-0.97647219 10:-0.31408778 11:0.6465413 12:-0.91104053 13:-0.076431608 14:0.13845219 15:0.11757587 16:-0.99798141 17:-0.99092365 18:-0.99638908 19:-0.99677684 20:-0.98967216 21:-0.99634043 22:0.25852147 23:-0.26684114 24:-0.77102464 25:-0.090018439 26:0.55855779 27:0.427109 28:-0.99762075 29:-0.99980619 30:-0.99944294 31:-0.99832963 32:-0.99988264 33:-0.99969301 34:0.51609206 35:-0.33257867 36:0.026911559 
-0 0 0 0 0.13856926986174223 3.2572138883921178 1:0.21152027 2:-0.97940274 3:-0.090241844 4:-0.99915656 5:-0.99998828 6:-0.99851889 7:-0.9170292 8:0.92135333 9:-0.98381736 10:0.98336521 11:0.99537005 12:0.95937965 13:0.060940716 14:0.18882641 15:0.034172911 16:-0.99975631 17:-0.99895222 18:-0.9996841 19:-0.99945366 20:-0.99893957 21:-0.9991856 22:-0.29959919 23:-1 24:0.10778732 25:-0.094371013 26:0.55856146 27:0.43332996 28:-0.99988268 29:-0.99999759 30:-0.99996331 31:-0.99991797 32:-0.99999177 33:-0.99998251 34:0.3836137 35:0.2615723 36:0.28663924 
-0 0 0 1.7205404867627974 0 4 1:0.14992557 2:-0.99184397 3:-0.076257575 4:-0.99994312 5:-0.99999978 6:-0.99970846 7:-0.95963734 8:0.9686607 9:-0.98886697 10:0.084104269 11:0.9022785 12:-0.35573115 13:0.027754673 14:0.073711409 15:0.087015599 16:-0.99997908 17:-0.99884199 18:-0.99995188 19:-0.99995631 20:-0.99300655 21:-0.99994814 22:-0.43510591 23:-0.60703551 24:0.54936259 25:-0.09309564 26:0.55805144 27:0.43228942 28:-0.99988956 29:-0.99999462 30:-0.99996629 31:-0.99992271 32:-0.99999187 33:-0.99998246 34:0.12809675 35:0.20503889 36:0.27785336 
-0 0 4 0 0.98410179884577975 0 1:0.21657364 2:-0.97827864 3:-0.089297724 4:-0.99817658 5:-0.99996542 6:-0.99845649 7:-0.91243098 8:0.91711887 9:-0.98413479 10:0.99765916 11:0.99632506 12:0.99395873 13:-0.0113284 14:0.18931399 15:0.1412974 16:-0.99993537 17:-0.99760951 18:-0.99979655 19:-0.99983353 20:-0.99760074 21:-0.99944596 22:-0.1706927 23:-0.45299281 24:0.0034816464 25:-0.099210401 26:0.55771968 27:0.43201185 28:-0.9996994 29:-0.99999265 30:-0.99993413 31:-0.9997614 32:-0.99999177 33:-0.9999663 34:0.706295 35:0.58710054 36:0.52063182 
-0 0 0 1.4537212948646503 0 0 1:0.16298994 2:-0.99108823 3:-0.056451818 4:-0.99932277 5:-0.99997077 6:-0.99899147 7:-0.95163357 8:0.96578562 9:-0.99387056 10:0.98240425 11:-0.76056394 12:-0.86516805 13:-0.0048457346 14:0.17477013 15:0.035843943 16:-0.99962602 17:-0.99601774 18:-0.99784774 19:-0.99957093 20:-0.99586365 21:-0.99740042 22:0.080151667 23:-0.52013815 24:-0.12378156 25:-0.098868067 26:0.55738483 27:0.43260586 28:-0.99852855 29:-0.99983283 30:-0.99960042 31:-0.9989497 32:-0.99990155 33:-0.99980777 34:0.13831067 35:0.39716562 36:0.27396429 
-0 0 0 1.9529102931288567 0 0 1:0.15245934 2:-0.99188217 3:-0.068251074 4:-0.99900666 5:-0.99996593 6:-0.99884048 7:-0.957747 8:0.96882481 9:-0.99088372 10:0.98443783 11:-0.86305706 12:-0.93592441 13:0.020499293 14:0.26030462 15:0.14198722 16:-0.99794161 17:-0.97914985 18:-0.99856396 19:-0.99795613 20:-0.97746392 21:-0.99821862 22:-0.45376211 23:0.10642649 24:-0.26798259 25:-0.098932232 26:0.55777772 27:0.43520445 28:-0.99774924 29:-0.99929894 30:-0.99654749 31:-0.99840641 32:-0.99959602 33:-0.99834271 34:0.17369649 35:-0.4273234 36:-0.020316353 
-0.1118617242010894 0 0 4 0 1.2913054223036657 1:0.1385966 2:-0.97343983 3:-0.20450993 4:-0.99961674 5:-0.99978417 6:-0.99107958 7:-0.9656191 8:0.89898899 9:-0.91401505 10:0.10228871 11:0.044587343 12:-0.98481761 13:0.0033125012 14:0.16935203 15:0.074783165 16:-0.99123007 17:-0.97893669 18:-0.99547043 19:-0.9912888 20:-0.97870589 21:-0.99548047 22:-0.68066782 23:-0.16378504 24:0.46493128 25:-0.10166546 26:0.56115764 27:0.42319806 28:-0.99688047 29:-0.99968438 30:-0.99748096 31:-0.99776627 32:-0.99979984 33:-0.99868902 34:0.21834672 35:-0.43910905 36:0.20238178 
-0 0 0 1.9847423628567626 0 0 1:0.15618984 2:-0.9804643 3:-0.14811498 4:-0.99654377 5:-0.99972897 6:-0.98372657 7:-0.95439876 8:0.92550562 9:-0.95127567 10:0.098275694 11:0.44170725 12:-0.84104585 13:-0.11839813 14:0.36660153 15:0.24573396 16:-0.99511136 17:-0.9746167 18:-0.9961023 19:-0.99255598 20:-0.96288294 21:-0.99267385 22:-0.14375797 23:0.46464218 24:0.043741876 25:-0.10431322 26:0.55654642 27:0.43701387 28:-0.99733698 29:-0.99960402 30:-0.99647396 31:-0.998036 32:-0.99977285 33:-0.99829846 34:0.13094807 35:-0.3569593 36:0.010961414 
-0 0 0 2.1173009525502766 0 0 1:0.17663912 2:-0.98062969 3:-0.12790548 4:-0.99885543 5:-0.99970064 6:-0.98676542 7:-0.94263885 8:0.92614652 9:-0.96344473 10:0.80123936 11:-0.67966508 12:-0.98057285 13:-0.035062928 14:0.060395615 15:0.028178602 16:-0.99960189 17:-0.99104713 18:-0.9982319 19:-0.99923763 20:-0.98386652 21:-0.99764273 22:-0.022607021 23:-0.44931589 24:0.13960078 25:-0.094518399 26:0.55822502 27:0.43005459 28:-0.99933935 29:-0.99990946 30:-0.99953076 31:-0.99953944 32:-0.99994273 33:-0.99976344 34:0.15052761 35:-0.10632678 36:0.05557469 
-0 0 4 4 0 4 1:0.15465703 2:-0.9922177 3:-0.061724251 4:-0.99998675 5:-0.99999993 6:-0.99987041 7:-0.95694486 8:0.97009082 9:-0.99292378 10:-0.019947288 11:0.90157214 12:-0.45340239 13:0.0077495076 14:0.19358746 15:0.094003013 16:-0.99998418 17:-0.99988761 18:-0.99997994 19:-0.99997627 20:-0.99988724 21:-0.99997985 22:-0.34944417 23:-0.63024929 24:0.10559352 25:-0.095505766 26:0.55799677 27:0.43233069 28:-0.9999419 29:-0.99999794 30:-0.99998347 31:-0.99995655 32:-0.99999394 33:-0.99999079 34:0.31846154 35:0.20167705 36:0.28221686 
-0 0.26213039741769595 0 4 0 0 1:0.15890897 2:-0.99046814 3:-0.074857888 4:-0.99882784 5:-0.99996749 6:-0.99981866 7:-0.95387637 8:0.9634173 9:-0.98932633 10:0.98674259 11:-0.38252417 12:-0.52039041 13:0.060464886 14:-0.049314331 15:0.0077931938 16:-0.99936737 17:-0.97310972 18:-0.99513336 19:-0.99907455 20:-0.94941128 21:-0.99413343 22:-0.80611446 23:-0.79437044 24:0.57935808 25:-0.10136333 26:0.55869892 27:0.43398231 28:-0.9961716 29:-0.99982105 30:-0.99928675 31:-0.9972773 32:-0.99989057 33:-0.9996581 34:-0.044955289 35:0.58322588 36:0.16366162 
-0 0 1.4146838537690232 0 0 0 1:0.1680493 2:-0.98894377 3:-0.077415986 4:-0.99988381 5:-0.99999817 6:-0.999935 7:-0.9487367 8:0.95758076 9:-0.98858798 10:0.96308675 11:0.67817331 12:0.45440054 13:0.010685822 14:0.23698959 15:0.086355511 16:-0.99987618 17:-0.99243085 18:-0.99987463 19:-0.99987437 20:-0.9917296 21:-0.99987072 22:-0.93695095 23:-0.64719163 24:0.51837581 25:-0.094120119 26:0.5579322 27:0.43456593 28:-0.9994495 29:-0.99999005 30:-0.99988761 31:-0.99961658 32:-0.99998965 33:-0.99994526 34:0.64991109 35:0.58315495 36:0.44346625 
-0 0 0 0.44716175504933309 0 0 1:0.17170035 2:-0.98722254 3:-0.073027829 4:-0.99760236 5:-0.99969774 6:-0.98722819 7:-0.94529753 8:0.9511788 9:-0.9856222 10:0.9629989 11:-0.92350852 12:-0.97667691 13:0.11431493 14:0.26137364 15:0.16340141 16:-0.99738012 17:-0.98832822 18:-0.99795726 19:-0.9959726 20:-0.98657458 21:-0.99723764 22:0.2138174 23:0.15459631 24:-0.19744467 25:-0.10134595 26:0.55501533 27:0.43651269 28:-0.99723541 29:-0.99965488 30:-0.99839931 31:-0.99801829 32:-0.99980322 33:-0.9992244 34:0.17583207 35:0.04960862 36:0.47982181 
-0 0 0 0.25120387946781453 0 0 1:0.14260307 2:-0.99192976 3:-0.087358665 4:-0.99988933 5:-0.99999976 6:-0.99979255 7:-0.96363677 8:0.96898896 9:-0.98526915 10:0.7943505 11:0.94819036 12:0.55563494 13:0.025334857 14:0.12214836 15:0.078589075 16:-0.99998153 17:-0.99606629 18:-0.99994257 19:-0.99996673 20:-0.99397111 21:-0.9999149 22:-0.55118972 23:-0.21599643 24:-0.39170541 25:-0.095710161 26:0.55830964 27:0.4319466 28:-0.99989739 29:-0.99999455 30:-0.99997614 31:-0.99992481 32:-0.99999096 33:-0.99998623 34:-0.057102008 35:0.096158162 36:0.25070944 
-0 0 0 0 0 4 1:0.18806966 2:-0.98699046 3:-0.053972127 4:-0.99956085 5:-0.99999339 6:-0.99961621 7:-0.93506576 8:0.95013791 9:-0.99462736 10:0.99899662 11:0.99370642 12:0.98926368 13:0.018087611 14:0.1535436 15:0.11214055 16:-0.99963261 17:-0.98822546 18:-0.9995799 19:-0.99963473 20:-0.98756359 21:-0.99952773 22:-0.89263674 23:-0.83245448 24:0.5573476 25:-0.097381554 26:0.55730603 27:0.43230542 28:-0.99963459 29:-0.99996653 30:-0.99991302 31:-0.99973263 32:-0.99997799 33:-0.99995696 34:0.24447075 35:0.068776278 36:0.36335424 
-0 0 0 4 0 0 1:0.17528672 2:-0.97535661 3:-0.16084034 4:-0.99821749 5:-0.99952277 6:-0.98320812 7:-0.94323532 8:0.90633724 9:-0.94324523 10:0.63920293 11:-0.40907271 12:-0.95676926 13:0.009209531 14:0.17838132 15:0.099634571 16:-0.99076364 17:-0.98155993 18:-0.99255445 19:-0.99084193 20:-0.98147613 21:-0.99263917 22:-0.048674718 23:0.29539637 24:-0.74032497 25:-0.089067535 26:0.55934924 27:0.43122977 28:-0.9955138 29:-0.99956787 30:-0.9976413 31:-0.99685469 32:-0.99974343 33:-0.99886444 34:0.32966495 35:-0.541951 36:-0.11697289 
-0.16133372785934327 0 0 0 1.3645391174817196 0 1:0.18641998 2:-0.97032327 3:-0.18333266 4:-0.99970443 5:-0.99986934 6:-0.99319191 7:-0.93630801 8:0.88725085 9:-0.93114156 10:0.0089040188 11:0.22373006 12:-0.96880261 13:0.03675476 14:0.10218119 15:0.072957517 16:-0.99881577 17:-0.98566201 18:-0.99804725 19:-0.99875877 20:-0.98226583 21:-0.99801529 22:0.76982914 23:0.61611341 24:0.59527952 25:-0.092084035 26:0.55822645 27:0.4306592 28:-0.99934205 29:-0.99985446 30:-0.99900909 31:-0.99953916 32:-0.99991136 33:-0.99951714 34:-0.018979581 35:-0.16688289 36:-0.11662769 
-0.3435332585163714 0.076284387756450078 3.5544221531264286 0 0 0 1:0.26872158 2:-0.96979043 3:-0.022942642 4:-0.99979827 5:-0.99999086 6:-0.99944085 7:-0.86471334 8:0.88519081 9:-0.99932349 10:0.99651667 11:0.89454138 12:0.85843424 13:0.028828339 14:0.18310847 15:0.088930448 16:-0.99953876 17:-0.99809995 18:-0.99932571 19:-0.99951587 20:-0.99804834 21:-0.99933226 22:-0.032705985 23:-0.77812823 24:-0.33395434 25:-0.092265383 26:0.55801909 27:0.4355752 28:-0.99950375 29:-0.99991196 30:-0.99973986 31:-0.99965231 32:-0.99994484 33:-0.99987145 34:0.38507789 35:0.6680728 36:0.32641384 
-0 0.24164250533855888 0 0 0 0 1:0.18100023 2:-0.98816456 3:-0.053738512 4:-0.99925369 5:-0.99999035 6:-0.99862794 7:-0.93987209 8:0.95461312 9:-0.9943444 10:0.99149468 11:1 12:0.98050614 13:0.044018274 14:0.20265847 15:0.05615799 16:-0.99994808 17:-0.99963522 18:-0.99989278 19:-0.99982753 20:-0.99961081 21:-0.9996993 22:0.74099596 23:-0.83105376 24:-0.50118125 25:-0.092479681 26:0.55814492 27:0.43482629 28:-0.99982209 29:-0.99998908 30:-0.99993738 31:-0.99987456 32:-0.9999884 33:-0.99996853 34:-0.12790594 35:0.24319695 36:0.34404108 
-0 0 0 1.6798472919052974 0 0 1:0.16650988 2:-0.98897437 3:-0.079489742 4:-0.9994649 5:-0.99998577 6:-0.99997434 7:-0.94951001 8:0.95770409 9:-0.98795168 10:0.99730551 11:-0.56178278 12:-0.61623435 13:0.021422483 14:0.17959635 15:0.090173315 16:-0.99984755 17:-0.99608306 18:-0.99842623 19:-0.9998433 20:-0.99599645 21:-0.998445 22:-0.50902081 23:0.38967026 24:-0.34657442 25:-0.093831586 26:0.55747745 27:0.43356457 28:-0.99963367 29:-0.99961013 30:-0.99984622 31:-0.99974495 32:-0.99977431 33:-0.99992644 34:-0.51967131 35:-0.053426223 36:-0.098195772 
-0 0.0017485998955715939 0 0 0.40405847237540776 0 1:0.18936984 2:-0.97823648 3:-0.13207009 4:-0.99955618 5:-0.99981237 6:-0.99119002 7:-0.93413105 8:0.91704096 9:-0.96277334 10:0.90317854 11:-0.79081597 12:-0.97422105 13:0.016281899 14:0.19989466 15:0.090107902 16:-0.99923545 17:-0.97883391 18:-0.99750776 19:-0.99924221 20:-0.97884976 21:-0.99753788 22:0.60871516 23:0.72957839 24:0.8795368 25:-0.096591602 26:0.55722747 27:0.43222699 28:-0.99916553 29:-0.99991044 30:-0.999246 31:-0.99941106 32:-0.9999462 33:-0.99963707 34:0.2800579 35:-0.091770332 36:-0.2175684 
-0 0 0 1.0723214597757444 0 0 1:0.13794123 2:-0.99438701 3:-0.064880953 4:-0.99998346 5:-0.99999994 6:-0.99991218 7:-0.96613423 8:0.97840252 9:-0.99214038 10:0.24286198 11:0.88054927 12:-0.24863037 13:0.020324415 14:0.20650954 15:0.086432819 16:-0.99995261 17:-0.9997411 18:-0.99991089 19:-0.99994923 20:-0.9996864 21:-0.99990666 22:0.15487499 23:-0.61217092 24:-0.18124811 25:-0.094523111 26:0.55797186 27:0.43294848 28:-0.99989914 29:-0.99999277 30:-0.99991609 31:-0.99992922 32:-0.99999107 33:-0.99995958 34:-0.15042133 35:-0.040710958 36:0.35118569 
-1.0617017186452149 0.64195924456702302 0 4 0.38924472523310744 3.8240503403838333 1:0.16127151 2:-0.98720745 3:0.062673234 4:-0.9974871 5:-0.99976876 6:-0.95990044 7:-0.95180703 8:0.95108361 9:-0.97914154 10:0.68304245 11:0.43475235 12:0.93430405 13:0.047105064 14:0.29081857 15:0.12291009 16:-0.99552509 17:-0.96289376 18:-0.99595454 19:-0.99541721 20:-0.95926334 21:-0.9958674 22:-0.668714 23:-0.20236529 24:0.50684249 25:-0.11054761 26:0.69086937 27:0.38247528 28:-0.99202322 29:-0.87487705 30:-0.91027764 31:-0.99416819 32:-0.91903445 33:-0.95446857 34:-0.78686314 35:-0.78463806 36:0.90576127 
-0 0 0 4 0 0 1:0.166275 2:-0.98922715 3:-0.077523531 4:-0.99998774 5:-0.99999912 6:-0.999801 7:-0.94990805 8:0.95866158 9:-0.98850954 10:0.40465106 11:0.16649864 12:-0.83375427 13:0.019677775 14:0.16913301 15:0.099057738 16:-0.99944643 17:-0.9972806 18:-0.99956891 19:-0.99944853 20:-0.99702253 21:-0.9995678 22:-0.45974508 23:-0.48709724 24:-0.097877618 25:-0.098403138 26:0.55613605 27:0.43196515 28:-0.99960838 29:-0.99984349 30:-0.99957856 31:-0.99970605 32:-0.99991001 33:-0.99979573 34:0.30784711 35:0.14627032 36:0.31189506 
-1.3455748066848965 0 0 4 0 0 1:0.1845288 2:-0.98562549 3:-0.079306852 4:-0.99753608 5:-0.99992677 6:-0.9999824 7:-0.93660215 8:0.94497889 9:-0.98801237 10:0.99862031 11:-0.82859302 12:-0.8504737 13:0.017510109 14:0.18002396 15:0.033274954 16:-0.99994557 17:-0.99929276 18:-0.99890546 19:-0.9999453 20:-0.99920725 21:-0.99840101 22:-0.57289483 23:0.04584423 24:-0.18842893 25:-0.097220865 26:0.56020577 27:0.43263339 28:-0.99964554 29:-0.99952165 30:-0.99995008 31:-0.99974138 32:-0.99971275 33:-0.99997541 34:-0.72371379 35:0.15309461 36:-0.42592237 
-0 0 0 0 0.91702431680509677 0 1:0.2453626 2:-0.97396376 3:-0.052656884 4:-0.99733697 5:-0.99992677 6:-0.99517447 7:-0.88658382 8:0.90088256 9:-0.99340974 10:0.99476809 11:0.99906967 12:0.99188884 13:0.085321884 14:0.16740694 15:0.024634348 16:-0.9998804 17:-0.99866425 18:-0.99958292 19:-0.9991651 20:-0.99836803 21:-0.99890773 22:0.40078784 23:-0.66307563 24:-0.52986877 25:-0.090685563 26:0.55887582 27:0.43466974 28:-0.99985751 29:-0.99998988 30:-0.99993447 31:-0.99989156 32:-0.99998614 33:-0.9999675 34:0.1455648 35:0.36169066 36:0.19292842 
-0 -0 0.52564863162167497 0 0 0 1:-0.15008813 2:0.36285495 3:0.91232126 4:-0.9715631 5:-0.86988088 6:-0.96806012 7:-0.93776116 8:-0.73379341 9:0.67538115 10:0.43143484 11:-0.21323134 12:-0.95850563 13:0.022699494 14:0.20257763 15:0.30847201 16:0.15799403 17:-0.045000523 18:-0.37342487 19:0.14753578 20:-0.046164588 21:-0.37429053 22:-0.032548354 23:-0.81755338 24:-0.25136093 25:0.15445794 26:-0.5592434 27:-0.38666518 28:-0.56877211 29:-0.46781924 30:-0.19044074 31:-0.63910992 32:-0.050589747 33:0.040226178 34:0.10649106 35:0.11782764 36:0.03700932 
-0 -1.9701782053912809 0 1.2499675277757085 0.37375024422385456 0 1:-0.27100037 2:-0.91172569 3:0.15346365 4:-0.94238272 5:-0.9958732 6:-0.65254176 7:-0.82006076 8:0.67624516 9:-0.83623016 10:0.22163971 11:0.91214807 12:0.42985643 13:-0.38199942 14:0.08848472 15:0.40597468 16:0.26723381 17:-0.046241359 18:0.23376477 19:0.2787603 20:-0.042929219 21:0.23300861 22:0.02069411 23:-0.72210974 24:-0.065581373 25:0.26041072 26:0.4427569 27:0.22198245 28:-0.18369515 29:0.17536655 30:-0.33048109 31:-0.30817533 32:-0.32321748 33:-0.63571308 34:-0.076411283 35:0.04830002 36:0.17225071 
-0.84096692004475881 -0.36264565585907732 0 0 0.72042825294634416 0 1:-0.65239671 2:-0.66882231 3:-0.20638962 4:-0.97314897 5:-0.94351977 6:-0.66018301 7:-0.12969555 8:-0.043284476 9:-0.80092353 10:-0.81307047 11:0.65943519 12:-0.92005487 13:0.30446771 14:0.021668476 15:0.0011447578 16:0.39584951 17:-0.31456501 18:-0.031217 19:0.39542255 20:-0.30348279 21:-0.041998537 22:-0.25887636 23:-0.68777605 24:-0.11730236 25:0.62386319 26:0.25875894 27:0.48657025 28:-0.24120714 29:-0.15896533 30:-0.4123654 31:0.035102013 32:-0.47477007 33:-0.7156257 34:-0.24114285 35:-0.16839673 36:0.075882329 
-0.58739911728857608 -0.44326891196717061 0 0 0 2.7490590734701064 1:-0.67684677 2:-0.68950506 3:-0.072857001 4:-0.9703847 5:-0.96408328 6:-0.76123946 7:-0.0635981 8:0.00088583951 9:-0.90948931 10:-0.94033234 11:0.73613307 12:-0.83273047 13:-0.35736611 14:0.17955203 15:0.16650561 16:0.40959053 17:-0.18032973 18:-0.17470807 19:0.41706831 20:-0.18125772 21:-0.18413183 22:-0.1758607 23:-0.63057137 24:-0.21029585 25:0.63499804 26:0.21428872 27:0.35188127 28:-0.39843073 29:-0.16826647 30:-0.43319934 31:-0.058525218 32:-0.46533833 33:-0.72187204 34:-0.20903894 35:-0.073066227 36:-0.072479688 
-0 -0 0 0 0.07218488384354714 0 1:0.99603949 2:0.1612696 3:0.042778106 4:-0.99782361 5:-0.92058399 6:-0.90223797 7:0.93083481 8:-0.92922782 9:-0.96391044 10:-0.78014206 11:0.1099363 12:-0.54745119 13:0.11601492 14:0.55359366 15:0.25936387 16:0.2070521 17:-0.40944612 18:0.16506635 19:0.19762296 20:-0.35888103 21:0.15473969 22:0.048322853 23:-0.71302505 24:-0.028717316 25:-1 26:-0.48734725 27:0.29415397 28:0.0074890444 29:0.41570108 30:-0.3043597 31:0.50969449 32:0.37255061 33:-0.64774897 34:-0.11191706 35:0.32270055 36:0.11222392 
-0 -0 0 0 0.10637456352375331 0 1:0.056104908 2:0.5301389 3:-0.15744973 4:1 5:-0.87099081 6:0.46036032 7:-0.037843084 8:-0.47983379 9:-0.45876307 10:0.92195416 11:-0.93210959 12:-0.76286458 13:-0.50048498 14:0.38735612 15:0.58970501 16:0.47052396 17:0.21528515 18:0.32382774 19:0.49596843 20:0.22855165 21:0.34399649 22:-0.010463315 23:-0.70316442 24:-0.27805654 25:-0.13916596 26:-0.6973737 27:0.48973492 28:0.31814253 29:-0.1614734 30:0.008794454 31:-0.080144159 32:0.29419005 33:-0.51343216 34:-0.057458401 35:-0.395348 36:0.24660466 
-0 -0 4 3.4435867378334906 0 3.6130000357041223 1:-0.063788662 2:0.55981206 3:0.83162653 4:-0.97752127 5:-0.87999627 6:-0.90835996 7:-0.97937781 8:-0.4285986 9:0.4140089 10:-0.2525677 11:0.33764082 12:-0.98281069 13:0.01690821 14:0.13149836 15:0.22704337 16:0.046025109 17:-0.44582754 18:-0.31081126 19:0.0365711 20:-0.44492317 21:-0.316678 22:-0.12862938 23:-0.77735863 24:-0.1149278 25:0.07355137 26:-0.74243787 27:-0.3035945 28:-0.54133146 29:-0.44349147 30:-0.63690479 31:-0.65308413 32:0.19316011 33:-0.29918202 34:-0.1506943 35:0.29220967 36:0.027934514 
-0 -0 0 1.9972837483252988 0 3.0306055008063684 1:-0.82452781 2:0.27733041 3:0.48135881 4:-0.92710562 5:-0.97256361 6:-0.8676176 7:0.39850461 8:-0.87826231 9:-0.49223951 10:0.45910035 11:0.96967784 12:0.31486966 13:-0.20930187 14:0.021658047 15:0.12868437 16:0.041685253 17:-0.41095052 18:-0.19513512 19:0.039611205 20:-0.39974693 21:-0.20492281 22:-0.044296777 23:-0.69931996 24:-0.16356889 25:0.7846085 26:-0.57300864 27:-0.088645905 28:-0.27981645 29:-0.3194665 30:-0.43405873 31:0.26066925 32:0.05006565 33:-0.46438916 34:-0.069072127 35:0.090221054 36:0.22832492 
-0 -0.041377699467472204 0 0 0.05699683912921228 0 1:0.50658273 2:0.62920668 3:-0.61849619 4:-0.95922715 5:-0.93883654 6:-0.83245985 7:-0.48803125 8:-0.31605895 9:-0.17936516 10:0.47105396 11:0.80383927 12:0.88634288 13:-0.17368786 14:0.12897183 15:0.4043869 16:0.089749395 17:-0.057361876 18:-0.02564974 19:0.085096454 20:-0.056811032 21:-0.023335562 22:0.053055932 23:-0.80463329 24:-0.34696736 25:-0.49255858 26:-0.87057189 27:0.80383021 28:-0.27351738 29:-0.032231976 30:-0.46311838 31:-0.33763999 32:0.60921818 33:-0.6097495 34:-0.16616393 35:0.21858158 36:0.047423048 
-0 -0 3.4570674310361142 4 0 0 1:-0.31077697 2:0.0004268315 3:0.92854975 4:-0.96861352 5:-0.8844092 6:-0.99299085 7:-0.78588496 8:-0.93610438 9:0.72673449 10:0.58889652 11:0.94203539 12:0.46892822 13:-0.16015724 14:0.23920324 15:0.20124049 16:0.12425989 17:-0.13671073 18:-0.27219654 19:0.11857715 20:-0.1369979 21:-0.27947145 22:-0.065796085 23:-0.72137907 24:-0.21224433 25:0.27514973 26:-0.28685596 27:-0.40820039 28:-0.62917832 29:-0.31383454 30:-0.50841081 31:-0.60787935 32:-0.24000937 33:-0.077476032 34:0.017779169 35:0.2891758 36:0.18202183 
-0.95179219646886859 -0 2.4107622650179397 0 0 0 1:0.60978682 2:0.34108587 3:0.69709566 4:-0.96586475 5:-0.77634588 6:-0.93602989 7:-0.26676826 8:-0.70960136 9:-0.0067117905 10:-0.38244563 11:-0.15441536 12:-0.81187047 13:0.21931867 14:0.011189491 15:0.026234019 16:0.091781649 17:0.043346143 18:0.21486489 19:0.087983184 20:0.05547189 21:0.2004467 22:-0.037806425 23:-0.74342913 24:-0.26807094 25:-0.61265987 26:-0.61065359 27:-0.25395759 28:-0.76250314 29:-0.49894288 30:-0.86809955 31:-0.56966266 32:-0.0073520187 33:-0.47854835 34:0.16552085 35:0.22237464 36:0.18987288 
-0 -0 0 0 0 0.063161757693130635 1:-0.25596486 2:0.068736723 3:0.94136902 4:-0.98093072 5:-0.84422914 6:-0.99612449 7:-0.85455261 8:-0.91544127 9:0.77362688 10:0.55639972 11:0.69114657 12:0.0074359957 13:-0.33012996 14:0.21818791 15:0.31305695 16:0.27734568 17:-0.21321115 18:-0.39670488 19:0.28317065 20:-0.21397148 21:-0.3969856 22:-0.1085679 23:-0.73189963 24:-0.21452247 25:0.24857002 26:-0.41204887 27:-0.39931921 28:-0.71678556 29:-0.45557772 30:-0.57410852 31:-0.68748292 32:-0.20300777 33:-0.123383 34:-0.16837096 35:0.09304888 36:0.01799826 
-3.2149519945302831 -0.67166241315351127 4 4 1.7130449248017798 4 1:-0.16929696 2:0.36643537 3:0.90659947 4:-0.95518073 5:-0.8735717 6:-0.97290469 7:-0.91729303 8:-0.73139464 9:0.65293003 10:0.55846341 11:-0.22086845 12:-0.91335957 13:-0.16371578 14:0.23537824 15:0.26818289 16:0.11398387 17:-0.27856562 18:-0.52439856 19:0.10857765 20:-0.2788059 21:-0.5257273 22:-0.25346758 23:-0.78759028 24:-0.064723041 25:0.1701996 26:-0.61487663 27:-0.40183881 28:-0.64096861 29:-0.54182424 30:-0.68799453 31:-0.68144695 32:-0.026672633 33:-0.17389259 34:0.12134251 35:-0.012236188 36:0.17258906 
-0 -0 0 2.29700413078108 0 0 1:-0.24762649 2:0.03295707 3:0.94458944 4:-0.97001979 5:-0.85866084 6:-0.99476811 7:-0.85784016 8:-0.92491603 9:0.78623299 10:0.66776756 11:0.85486756 12:0.39258558 13:-0.32747019 14:0.27723943 15:0.38105192 16:0.13799648 17:-0.21224943 18:-0.15999416 19:0.1448144 20:-0.21051907 21:-0.15808739 22:-0.33639387 23:-0.5652682 24:-0.148383 25:0.26829386 26:-0.4059042 27:-0.40711461 28:-0.39856821 29:-0.3385184 30:-0.09475647 31:-0.45223618 32:-0.14242027 33:0.11901412 34:0.14280161 35:-0.33102824 36:0.017701436 
-0 -0 0 0 0.029194807384140931 0 1:-0.16783285 2:0.39545113 3:-0.86969531 4:-0.85748304 5:-0.78010748 6:-0.96878918 7:-0.87153939 8:-0.6446857 9:0.52218659 10:0.36680866 11:0.11512356 12:0.90235579 13:-0.073987391 14:0.18473286 15:0.37221507 16:0.10999406 17:0.0054810823 18:0.21498621 19:0.10111992 20:0.004269805 21:0.21149928 22:0.062537307 23:-0.78006009 24:-0.30040023 25:0.1602206 26:-0.62935542 27:1 28:0.0095699804 29:0.21424269 30:-0.18893982 31:-0.23356096 32:0.42219895 33:-0.30018542 34:-0.073603697 35:0.063002682 36:0.12520415 
-0.4553399906856519 -0 3.0486229823079389 4 0 4 1:-0.26159043 2:0.022278838 3:0.94143631 4:-0.97166307 5:-0.86243536 6:-0.99434555 7:-0.84421957 8:-0.92653872 9:0.77448001 10:0.54544638 11:0.87413495 12:0.27347962 13:-0.20235149 14:0.26395232 15:0.2400132 16:0.16021944 17:-0.21345435 18:-0.40094022 19:0.1566265 20:-0.21252544 21:-0.40514767 22:-0.12776152 23:-0.8007813 24:-0.14405691 25:0.26916103 26:-0.32798222 27:-0.38679512 28:-0.70426595 29:-0.38459248 30:-0.65270371 31:-0.66447575 32:-0.24345001 33:-0.18112599 34:-0.12944431 35:0.1654878 36:0.014508356 
-0 -0 0 0 0 4 1:-0.97395614 2:0.17741022 3:0.11564266 4:-0.99791135 5:-0.96448794 6:-0.83241879 7:0.89879007 8:-0.9446124 9:-0.91724549 10:0.31386776 11:0.39342012 12:-0.46367318 13:-0.35598335 14:0.070217542 15:0.3852622 16:0.20540624 17:-0.25928418 18:-0.22590833 19:0.21457972 20:-0.25402724 21:-0.22282187 22:-0.32878333 23:-0.85266513 24:-0.018128028 25:0.94139052 26:-0.51025936 27:0.22678635 28:-0.6281232 29:-0.43281987 30:-0.62912244 31:0.31335694 32:-0.086180469 33:-0.78079765 34:-0.37966421 35:-0.029262447 36:0.010654645 
-1.4726252605608752 -0.067888890439022589 4 4 2.1141348419530783 4 1:-0.29776109 2:0.072304336 3:0.93144677 4:-0.96005239 5:-0.882435 6:-0.99279748 7:-0.79776581 8:-0.93528671 9:0.7375781 10:0.67582653 11:0.90889388 12:0.42891325 13:0.34564118 14:0.13260649 15:-0.12283873 16:0.0071846798 17:-0.26192255 18:-0.2347345 19:0.013987465 20:-0.26130239 21:-0.23736764 22:-0.23427698 23:-0.80917101 24:-0.044841098 25:0.2544362 26:-0.39252733 27:-0.38826717 28:-0.67190527 29:-0.45559695 30:-0.65169156 31:-0.65224665 32:-0.22246534 33:-0.17829731 34:-0.16304782 35:0.35252721 36:0.018392975 
-0 -0 1.9021092006495273 1.3594187630333525 0.083140042419436927 2.3503970787389656 1:-0.91886556 2:-0.033744327 3:0.078074352 4:-0.97830439 5:-0.90653238 6:-0.22424744 7:0.70098544 8:-0.94100535 9:-0.72680279 10:-0.35108104 11:0.48737262 12:-0.80082255 13:0.058252483 14:0.65190944 15:0.45264466 16:0.16526457 17:-0.0039274431 18:-0.31848875 19:0.15500249 20:0.078094435 21:-0.30774336 22:-0.12679636 23:-0.63474133 24:-0.10085472 25:0.91000279 26:-0.21797738 27:0.23835082 28:-0.66947767 29:-0.3522575 30:-0.33382057 31:0.22158677 32:-0.31979075 33:-0.64376837 34:-0.057794333 35:0.097354716 36:-0.012350718 
-0.67087955377796893 -0 0 0 0 0 1:-0.47066626 2:-0.80779487 3:-0.20314092 4:-0.96215125 5:-0.95302506 6:-0.64401429 7:-0.53197154 8:0.35238784 9:-0.79813189 10:-0.87558169 11:0.83628605 12:-0.9539223 13:-0.37671649 14:0.21383101 15:0.31990759 16:0.48262962 17:-0.20055024 18:-0.0532829 19:0.49160203 20:-0.20140013 21:-0.057368567 22:-0.080599927 23:-0.81501205 24:-0.010919619 25:0.42904092 26:0.30172423 27:0.45150927 28:-0.39413407 29:0.052054438 30:-0.22789813 31:-0.30918357 32:-0.36672129 33:-0.62962516 34:-0.25410066 35:0.09513293 36:-0.010015712 
-0 -0 0 4 0 0 1:-0.27377143 2:0.0029040506 3:0.93639939 4:-0.96645646 5:-0.85934473 6:-0.99390136 7:-0.82853134 8:-0.92312287 9:0.75571008 10:0.60020858 11:0.9123871 12:0.41144479 13:0.098124541 14:0.15164805 15:0.2248074 16:0.16110445 17:-0.19051903 18:-0.26455922 19:0.15161173 20:-0.19078617 21:-0.2710879 22:-0.11712338 23:-0.66130336 24:-0.22315962 25:0.29108506 26:-0.26922522 27:-0.3855114 28:-0.46748822 29:-0.37251429 30:-0.45885416 31:-0.4834747 32:-0.288754 33:-0.090255791 34:-0.10106081 35:0.073652456 36:0.084360151 
-0.66958214404548844 -0 0.48220540319240229 0 0 0 1:0.67219215 2:0.35667919 3:0.63967715 4:-0.98678427 5:-0.8036897 6:-0.91603521 7:-0.12068236 8:-0.70605231 9:-0.15351357 10:-0.42290839 11:0.16928065 12:-0.92657117 13:-0.24412687 14:0.021264335 15:0.3190572 16:0.12355403 17:-0.34838925 18:0.26084943 19:0.1231943 20:-0.33720914 21:0.25281074 22:0.061735344 23:-0.78600741 24:-0.24657993 25:-0.64002469 26:-0.63688044 27:-0.13220703 28:-0.80286236 29:-0.33076991 30:-0.79350398 31:-0.56908165 32:0.12071735 33:-0.59072275 34:0.025869097 35:0.21333635 36:0.45451467 
-0 -0 1.7850100629899399 0 0.2764259707167489 0 1:-0.94698277 2:-0.19977306 3:-0.19765912 4:-0.99593471 5:-0.93023595 6:-0.94040067 7:0.79679606 8:-0.85853636 9:-0.90243711 10:-0.72653625 11:-0.015246287 12:-0.62595539 13:-0.40132134 14:0.18513439 15:0.31498963 16:0.14522463 17:-0.033004381 18:-0.14515426 19:0.16014409 20:-0.034170908 21:-0.14842799 22:-0.035082083 23:-0.78426247 24:-0.31778349 25:0.94898669 26:-0.13925596 27:0.48149104 28:-0.36012062 29:-0.23500982 30:-0.62757388 31:0.51549992 32:-0.31302709 33:-0.81927057 34:-0.25450356 35:0.098149974 36:0.14521488 
-0 -0 0 4 0 0 1:-0.31611278 2:0.020278703 3:0.92160724 4:-0.94532621 5:-0.86979674 6:-0.98579414 7:-0.76799379 8:-0.93032895 9:0.70346743 10:0.48883729 11:0.93366112 12:0.2857888 13:-0.12987902 14:0.40518266 15:0.1715306 16:0.12032408 17:-0.16112845 18:-0.20521572 19:0.11326371 20:-0.14453119 21:-0.21414725 22:-0.15775941 23:-0.62879085 24:-0.19607793 25:0.29242802 26:-0.30035671 27:-0.39861467 28:-0.50113153 29:-0.37788657 30:-0.21154223 31:-0.50588171 32:-0.26461216 33:0.04925477 34:0.19456137 35:-0.28432055 36:0.048856867 
-0 -0 2.27167924256401 0 0 0 1:-0.16041649 2:0.23358743 3:0.94049478 4:-0.97118451 5:-0.83550185 6:-0.98273544 7:-0.930972 8:-0.84097565 9:0.77484956 10:0.53294536 11:-0.19113326 12:-0.90132477 13:-0.054612601 14:0.21679297 15:0.27144763 16:0.12290795 17:0.015850282 18:-0.29371544 19:0.11346839 20:0.014779627 21:-0.29773376 22:-0.19394626 23:-0.86447262 24:-0.16528707 25:0.16045745 26:-0.46394204 27:-0.38580348 28:-0.61147356 29:-0.41632667 30:-0.4912416 31:-0.66587689 32:-0.12700311 33:-0.10531488 34:-0.098117704 35:0.25899838 36:0.092115081 
-0.61279631174792903 -0.73217584187644513 2.7004528757698494 1.4201357253017761 0 1.9482896433236778 1:0.02552486 2:0.59715959 3:0.80794289 4:-0.97853955 5:-0.86308212 6:-0.89695075 7:-0.98904576 8:-0.34445944 9:0.34018043 10:-0.30288688 11:0.37570433 12:-0.98712871 13:0.3752036 14:0.16638224 15:-0.18809821 16:0.027090322 17:-0.49401877 18:-0.222943 19:0.036686468 20:-0.49432779 21:-0.22093462 22:-0.13922342 23:-0.79501976 24:-0.099581642 25:-0.072455145 26:-0.82730478 27:-0.31093002 28:-0.65639171 29:-0.45704761 30:-0.75522461 31:-0.76029829 32:0.30376076 33:-0.34535503 34:-0.091289313 35:-0.0015348982 36:-0.020837275 
-0 -4 -0 0 0 0 1:0.022476431 2:-0.97737458 3:-0.14441458 4:-0.96443642 5:-0.99859792 6:-0.86302024 7:-0.98250005 8:0.91443312 9:-0.91274738 10:-0.53578812 11:0.89026418 12:-0.73364314 13:-0.21427162 14:0.16738087 15:0.24418781 16:-0.72828806 17:-0.65940891 18:-0.63046587 19:-0.72307413 20:-0.6595343 21:-0.63164185 22:-0.10661218 23:-0.66957307 24:-0.074121552 25:-0.064691401 26:0.51677544 27:0.41736222 28:-0.81873201 29:-0.90039008 30:-0.81197755 31:-0.87295158 32:-0.94244153 33:-0.90962868 34:0.3446206 35:0.61708345 36:0.48606909 
-0 -0 -0 4 0 0 1:0.12586268 2:-0.049326787 3:0.96443234 4:-0.95087986 5:-0.85738574 6:-0.99830788 7:-0.94858384 8:-0.91034559 9:0.86081122 10:0.64397558 11:0.0077398733 12:0.26158471 13:-0.18816609 14:0.28309296 15:0.34039409 16:-0.59832258 17:-0.50758607 18:-0.57574514 19:-0.59592921 20:-0.50508982 21:-0.57191008 22:-0.10212536 23:-0.56578441 24:-0.017696305 25:-0.18572769 26:-0.26001048 27:-0.40445496 28:-0.81109367 29:-0.82065944 30:-0.75477626 31:-0.86013952 32:-0.55216133 33:-0.20165632 34:0.41494936 35:0.3462716 36:0.31278286 
-0.55807040459152624 -0 -0 0 1.357048671221347 0 1:-0.76181105 2:-0.47125066 3:-0.38774489 4:-0.98529188 5:-0.94153016 6:-0.87182343 7:0.17269414 8:-0.48830702 9:-0.65687815 10:-0.67788268 11:0.025635047 12:-0.70831992 13:0.31054368 14:0.12989483 15:0.0038267185 16:-0.63482767 17:-0.57744792 18:-0.4810278 19:-0.62542151 20:-0.57629791 21:-0.48630215 22:-0.26900861 23:-0.37494991 24:-0.13617816 25:0.68304167 26:0.11945973 27:0.61812388 28:-0.74383036 29:-0.86203985 30:-0.7240005 31:-0.22785061 32:-0.82265646 33:-0.83468574 34:0.52056254 35:0.50621206 36:0.45095332 
-0.082514400676396482 -0 -0 0 0 0 1:0.59719558 2:-0.66465514 3:-0.43420499 4:-0.97946565 5:-0.99699835 6:-0.90617471 7:-0.30291187 8:-0.082588145 9:-0.59211038 10:-0.63988359 11:0.96212823 12:-0.78369523 13:0.068318102 14:0.1633212 15:0.25742524 16:-0.55900037 17:-0.66819067 18:-0.65470655 19:-0.5625752 20:-0.66821002 21:-0.65496154 22:-0.044389408 23:-0.72848788 24:0.017817402 25:-0.64588335 26:0.2596378 27:0.68024757 28:-0.85944272 29:-0.92124626 30:-0.8570049 31:-0.60214625 32:-0.90972001 33:-0.87245837 34:0.46077484 35:0.59530927 36:0.52203094 
-0 -0 -0 0 0.74117737575190068 0 1:0.5609332 2:-0.6901752 3:-0.44454053 4:-0.98827852 5:-0.99213322 6:-0.91637858 7:-0.38897812 8:-0.012196932 9:-0.57739178 10:-0.47641566 11:0.82941457 12:-0.8706701 13:0.37615119 14:0.12313134 15:-0.054778355 16:-0.62998918 17:-0.6864789 18:-0.58301053 19:-0.61435456 20:-0.68482546 21:-0.58497498 22:-0.3394911 23:-0.5658534 24:0.1323526 25:-0.62518622 26:0.29099103 27:0.64057263 28:-0.80333364 29:-0.8848314 30:-0.75673777 31:-0.58514608 32:-0.89807844 33:-0.8418536 34:0.53456112 35:0.43320711 36:0.61118949 
-0 -0 -0 2.0385681921850392 0 0 1:0.13019637 2:-0.9681771 3:-0.14394886 4:-0.95655515 5:-0.99848805 6:-0.85775412 7:-0.9492301 8:0.87995316 9:-0.91124044 10:0.14539292 11:0.6873559 12:-0.47122931 13:-0.13031013 14:0.9290902 15:0.5328245 16:-0.55133381 17:-0.2130968 18:-0.42911229 19:-0.55230521 20:0.00075905296 21:-0.40749701 22:-0.055596436 23:-0.32592196 24:-0.064648413 25:-0.21074559 26:0.51770356 27:0.5002566 28:-0.83268835 29:-0.9292327 30:-0.78710436 31:-0.87003144 32:-0.95892501 33:-0.89364622 34:0.46122253 35:0.2814995 36:0.34203789 
-2.5455046814613023 -0 -0 3.1012459999485893 0.1621053800069048 0 1:-0.060347968 2:-0.97345426 3:-0.14628228 4:-0.98643934 5:-0.9978485 6:-0.81799465 7:-0.9845833 8:0.90007104 9:-0.89648411 10:-0.47291121 11:0.6690252 12:-0.85396209 13:0.28325467 14:-1 15:-0.29421175 16:-0.69336636 17:-0.42874925 18:-0.7469193 19:-0.68567071 20:0.13922303 21:-0.72793675 22:-0.16063837 23:-0.20219129 24:-0.14954565 25:0.014302324 26:0.54668449 27:0.44030811 28:-0.8138917 29:-0.92262951 30:-0.82159155 31:-0.85892289 32:-0.95584528 33:-0.91444608 34:0.11208763 35:0.47811973 36:0.27267093 
-0 -0 -0 4 0 0 1:0.038846643 2:0.1525269 3:0.96473129 4:-0.94715857 5:-0.83864184 6:-0.99248659 7:-0.97269626 8:-0.88960702 9:0.86392722 10:0.54609843 11:-0.46095933 12:-0.84800674 13:0.30501267 14:0.16235648 15:-0.0024054535 16:-0.60696409 17:-0.63861666 18:-0.56669711 19:-0.59828123 20:-0.63864828 21:-0.5707398 22:-0.4176455 23:-0.61289686 24:0.18908965 25:-0.11201877 26:-0.42798906 27:-0.40502476 28:-0.82875507 29:-0.77576018 30:-0.7297359 31:-0.88043335 32:-0.36941397 33:-0.18872852 34:0.48421551 35:0.22882274 36:0.28021141 
-0 -0 -0 0.21289902505891029 0 0 1:0.010445141 2:-0.22919832 3:0.94005491 4:-0.94340593 5:-0.86484901 6:-0.98716302 7:-0.97288555 8:-0.79627807 9:0.77170239 10:0.60817926 11:0.63891139 12:0.94171508 13:-0.23954752 14:0.27705431 15:0.34230894 16:-0.62251238 17:-0.54510675 18:-0.42210697 19:-0.61647175 20:-0.54297433 21:-0.4200363 22:-0.065312369 23:-0.54143529 24:-0.033772064 25:-0.065604578 26:-0.11805618 27:-0.38773224 28:-0.7442217 29:-0.78160964 30:-0.70281911 31:-0.82112124 32:-0.63979903 33:-0.20365445 34:0.50073499 35:0.37680043 36:0.39650068 
-0 -0 -0 2.8352465558662634 1.9421897913191897 1.259742856783528 1:0.0087126874 2:-0.74997126 3:0.069278596 4:-0.94463983 5:-0.33856031 6:0.41351478 7:-0.97349435 8:0.50321011 9:-0.51440521 10:-0.44871278 11:-0.10063774 12:0.91782429 13:-0.499757 14:0.37168327 15:0.66094096 16:-0.56356347 17:-0.63450523 18:-0.51442808 19:-0.52888177 20:-0.6224886 21:-0.47262969 22:-0.010732599 23:-0.74231146 24:-0.11863727 25:-0.10776867 26:0.46835018 27:0.36904816 28:-0.7724752 29:-0.75003385 30:-0.4114145 31:-0.84138054 32:-0.85356021 33:-0.71386324 34:0.39190556 35:0.38192753 36:0.64718554 
-0 -4 -0 4 0 4 1:0.043167627 2:-0.97319877 3:-0.14472598 4:-0.9721359 5:-0.99709506 6:-0.81515297 7:-0.98407175 8:0.89951121 9:-0.89643104 10:-0.51322501 11:0.83092565 12:-0.82299364 13:0.045929728 14:0.1162114 15:0.25784151 16:-0.56926293 17:-0.56603743 18:-0.70914829 19:-0.57301851 20:-0.56411988 21:-0.70870774 22:-0.23431318 23:-0.73866872 24:-0.0048968465 25:-0.10530903 26:0.51958215 27:0.45992036 28:-0.87159979 29:-0.93502613 30:-0.83378984 31:-0.91046317 32:-0.96229957 33:-0.91966248 34:0.28664977 35:0.55943786 36:0.32460265 
-0 -0 -0 4 0 0 1:0.054382152 2:-0.97669138 3:-0.10485751 4:-0.95471658 5:-0.99847552 6:-0.82228735 7:-0.97388168 8:0.91192177 9:-0.9187138 10:-0.4281323 11:0.93140073 12:-0.57710707 13:0.10606723 14:0.12549621 15:0.26932466 16:-0.55277932 17:-0.65084066 18:-0.48399222 19:-0.55561856 20:-0.6493643 21:-0.4857625 22:-0.15737023 23:-0.59364769 24:-0.054948392 25:-0.11065875 26:0.52286122 27:0.44156079 28:-0.80915272 29:-0.87699289 30:-0.77623842 31:-0.86683126 32:-0.92932199 33:-0.89269075 34:0.31303132 35:0.3230871 36:0.39071307 
-1.2248337083845566 -0 -0 4 0 0 1:0.15684252 2:-0.39227105 3:0.66339026 4:0.27201234 5:-0.90610121 6:-0.73191059 7:-0.34676397 8:-0.60721129 9:-0.029631252 10:-0.17442071 11:-0.21569636 12:-0.011258702 13:-0.14294603 14:-0.92041812 15:0.032258062 16:-0.52450283 17:-0.50448536 18:-0.5713104 19:-0.52515785 20:-0.009655081 21:-0.57609106 22:-0.22436646 23:-0.4086316 24:0.016017722 25:-0.19027685 26:0.014966422 27:-0.11101093 28:-0.39599356 29:-0.89908182 30:-0.78107582 31:-0.57026031 32:-0.79074271 33:-0.60758194 34:0.0094509012 35:0.12797649 36:0.16432388 
-0 -0 -0 4 0 0 1:0.0062105559 2:0.094536324 3:0.97155857 4:-0.92991672 5:-0.86235635 6:-0.99745442 7:-0.9664518 8:-0.92080695 9:0.88869529 10:0.17918708 11:-0.32082858 12:-0.6658291 13:-0.1786373 14:0.15105618 15:0.33770617 16:-0.56013624 17:-0.61634862 18:-0.45677519 19:-0.55863933 20:-0.61606538 21:-0.45461177 22:-0.070779182 23:-0.56831902 24:0.092031331 25:-0.049614956 26:-0.38470419 27:-0.4066037 28:-0.73146124 29:-0.74540574 30:-0.70193778 31:-0.81109874 32:-0.39540633 33:-0.17283542 34:0.33463265 35:0.2801308 36:0.35305504 
-0 -0 -0 1.5650496780993544 1.5548495130983735 0 1:-0.041873088 2:-0.099531149 3:0.96718189 4:-0.95295328 5:-0.8730676 6:-0.99617026 7:-0.97278347 8:-0.8978306 9:0.87215542 10:0.59699727 11:0.57754677 12:0.78465119 13:0.33489638 14:0.22653929 15:-0.02833917 16:-0.6148244 17:-0.68892312 18:-0.57633934 19:-0.60341722 20:-0.68890774 21:-0.579435 22:-0.24293971 23:-0.51222828 24:0.14241902 25:-0.028802384 26:-0.19629635 27:-0.40668109 28:-0.79063932 29:-0.78882801 30:-0.71058825 31:-0.85007046 32:-0.58593322 33:-0.17685544 34:0.51813965 35:0.42649446 36:0.44421254 
-0 -0 -0 4 0 4 1:0.028546427 2:-0.97602438 3:-0.098875612 4:-0.9652197 5:-0.9978015 6:-0.78386726 7:-0.98242989 8:0.90976606 9:-0.90819601 10:-0.34257051 11:0.8657793 12:-0.67080501 13:0.12092368 14:0.12995741 15:0.20819222 16:-0.54890785 17:-0.66105316 18:-0.52335834 19:-0.55135661 20:-0.65980234 21:-0.52728735 22:-0.37904409 23:-0.6275513 24:0.046887945 25:-0.085432872 26:0.50975215 27:0.4395197 28:-0.81987708 29:-0.88773971 30:-0.81382714 31:-0.87451183 32:-0.93492332 33:-0.9107344 34:0.39126751 35:0.31932407 36:0.36222929 
-2.4647907632396846 -0 -0 0 0 0 1:-0.11755765 2:0.10057885 3:0.97623166 4:-0.97221914 5:-0.91832906 6:-0.99815709 7:-0.9561376 8:-0.94917271 9:0.90666528 10:0.21488924 11:0.22425785 12:-0.74640973 13:0.32153249 14:0.24533576 15:-0.046714582 16:-0.66404717 17:-0.61854775 18:-0.50888304 19:-0.65341379 20:-0.61800313 21:-0.51210853 22:-0.23680715 23:-0.56606065 24:0.025730696 25:0.051620464 26:-0.34728302 27:-0.40737372 28:-0.8096519 29:-0.797009 30:-0.72106738 31:-0.84666423 32:-0.46069641 33:-0.18074913 34:0.48998361 35:0.46993831 36:0.43982965 
-0 -4 -0 0 0 0 1:0.058046107 2:-0.97709398 3:-0.10465728 4:-0.94866229 5:-0.99907947 6:-0.83606505 7:-0.97027108 8:0.91311908 9:-0.92344216 10:-0.54499386 11:0.94611366 12:-0.52348328 13:-0.08795725 14:0.28450093 15:0.310036 16:-0.65731293 17:-0.70041319 18:-0.60250817 19:-0.65886046 20:-0.69757708 21:-0.60043238 22:-0.088005857 23:-0.73759101 24:-0.081366049 25:-0.1119849 26:0.54157219 27:0.44692793 28:-0.84989055 29:-0.90616315 30:-0.84931097 31:-0.89515126 32:-0.94639813 33:-0.92760245 34:0.47844446 35:0.63931382 36:0.47603862 
-0 -0 -0 0 4 0 1:0.024726364 2:-0.17267806 3:0.9559573 4:-0.95490706 5:-0.87197463 6:-0.99368035 7:-0.97779037 8:-0.85011058 9:0.82981597 10:0.5946251 11:0.42955452 12:0.88185081 13:0.36640686 14:0.17040802 15:-0.07803009 16:-0.62373516 17:-0.6798691 18:-0.58815924 19:-0.60916793 20:-0.6800314 21:-0.58896681 22:-0.17206164 23:-0.54479999 24:0.10678574 25:-0.10509848 26:-0.14341599 27:-0.39129507 28:-0.81102657 29:-0.81365772 30:-0.7357553 31:-0.86829061 32:-0.63997821 33:-0.21375465 34:0.61497933 35:0.48950008 36:0.44311018 
-1.8136772606996672 -0 -0 4 2.374821290998347 4 1:0.014740977 2:-0.22643975 3:0.94405279 4:-0.96420032 5:-0.87097853 6:-0.98563071 7:-0.98274361 8:-0.80225122 9:0.78728592 10:0.59866592 11:0.59064381 12:0.94568193 13:-0.064722956 14:0.20934113 15:0.24993236 16:-0.57254063 17:-0.60673455 18:-0.66272397 19:-0.57547393 20:-0.60713919 21:-0.66323704 22:-0.14649311 23:-0.76553197 24:-0.013377201 25:-0.05785771 26:-0.078976477 27:-0.34859368 28:-0.8729176 29:-0.83471846 30:-0.82931164 31:-0.91024435 32:-0.69665893 33:-0.32512134 34:0.47007472 35:0.33301948 36:0.34754194 
-0 -0 -4 0 0 0 1:-0.082218999 2:-0.19968182 3:0.93142347 4:-0.83006503 5:-0.88744086 6:-0.97835183 7:-0.90298011 8:-0.83589285 9:0.74236103 10:0.69850819 11:0.76055925 12:0.79094616 13:-0.11288745 14:0.41078848 15:0.38208665 16:-0.39488583 17:-0.24078913 18:-0.30575689 19:-0.39796559 20:-0.2231403 21:-0.30195383 22:-0.20737666 23:-0.40478973 24:-0.078660224 25:0.039929115 26:-0.15584314 27:-0.33994352 28:-0.63014588 29:-0.65896045 30:-0.59186357 31:-0.72488413 32:-0.5426525 33:-0.22436017 34:0.45804959 35:0.32669488 36:0.21648011 
-0 -0 -0 0 0 0.098648612321025245 1:-0.8869501 2:-0.37148061 3:-0.20309053 4:-0.99445211 5:-0.94919942 6:-0.89456582 7:0.57870199 8:-0.66249239 9:-0.88263574 10:-0.811718 11:0.45674549 12:-0.84444143 13:0.055743197 14:0.15381216 15:0.23289496 16:-0.4541077 17:-0.47534581 18:-0.57396718 19:-0.45880219 20:-0.47533097 21:-0.5763321 22:-0.056695554 23:-0.63183264 24:0.027782976 25:0.81981823 26:0.032904754 27:0.50724906 28:-0.85145752 29:-0.8800421 30:-0.76474233 31:-0.07527965 32:-0.78979824 33:-0.88197637 34:0.22939932 35:0.42369908 36:0.37281035 
-0 -0 -0 4 0 0 1:-0.022005694 2:0.42712403 3:0.90283105 4:-0.96801 5:-0.88298045 6:-0.96477747 7:-0.983037 8:-0.65526143 9:0.64203038 10:0.30524201 11:-0.2264942 12:-0.98147214 13:-0.21167693 14:0.26788943 15:0.3576753 16:-0.56616693 17:-0.47735372 18:-0.61411047 19:-0.5625908 20:-0.47587315 21:-0.6084874 22:-0.19920844 23:-0.70494905 24:0.051769167 25:-0.044486821 26:-0.67633031 27:-0.3501864 28:-0.83295809 29:-0.78208233 30:-0.65979421 31:-0.88129994 32:-0.086897487 33:-0.24145516 34:0.43764129 35:0.3632701 36:0.30105159 
-0 -0 -2.5069493621519721 0 0 0 1:0.020474356 2:0.18354352 3:0.96709396 4:-0.95155545 5:-0.87887395 6:-0.99020955 7:-0.97644894 8:-0.89588541 9:0.87382459 10:0.33256448 11:-0.37530153 12:-0.9136773 13:-0.13813081 14:0.19307902 15:0.29016201 16:-0.46223268 17:-0.41345718 18:-0.32183536 19:-0.46366899 20:-0.41418601 21:-0.32446177 22:-0.09025019 23:-0.47095144 24:-0.062147531 25:-0.061236726 26:-0.45820566 27:-0.4009792 28:-0.75368276 29:-0.70813894 30:-0.62429654 31:-0.82744826 32:-0.29947005 33:-0.14475433 34:0.33648908 35:0.28036729 36:0.36633696 
-0 -0 -0 4 0 0 1:-0.032758012 2:-0.975288 3:-0.13662301 4:-0.96852418 5:-0.99738828 6:-0.83079224 7:-0.98182797 8:0.90721233 9:-0.90625794 10:-0.54531297 11:0.70688404 12:-0.87384325 13:0.15738766 14:-0.41847498 15:0.055860657 16:-0.67350905 17:-0.53493884 18:-0.59025963 19:-0.67351473 20:-0.38570167 21:-0.59514324 22:-0.16308723 23:-0.43513372 24:0.054166925 25:0.005788595 26:0.5092683 27:0.48143222 28:-0.80910266 29:-0.91549058 30:-0.82220719 31:-0.85732747 32:-0.95072498 33:-0.91256218 34:0.15469498 35:0.36568401 36:0.32200397 
-0 -0.056454083482758377 -0 0 0 0 1:0.89357552 2:-0.43965085 3:-0.02796428 4:-0.99027682 5:-0.97714992 6:-0.8728641 7:0.55533591 8:-0.56510475 9:-0.95614508 10:0.96817137 11:-0.26120744 12:-0.29619571 13:0.34401441 14:-0.0160809 15:-0.1114448 16:-0.64393109 17:-0.68088062 18:-0.54970647 19:-0.63139947 20:-0.66356874 21:-0.54913999 22:-0.2777719 23:-0.40628453 24:0.06057656 25:-0.93726028 26:0.08824337 27:0.35195955 28:-0.81629632 29:-0.83243426 30:-0.69092363 31:-0.17193664 32:-0.79112046 33:-0.84540955 34:0.3384069 35:0.21090057 36:0.42591337 
-0 -0 -0 0 0 4 1:0.049526086 2:-0.97785427 3:-0.093759369 4:-0.95539223 5:-0.99874965 6:-0.81823807 7:-0.97506777 8:0.91616252 9:-0.92175083 10:-0.36225195 11:0.93152718 12:-0.49798419 13:-0.031845995 14:0.17906184 15:0.22423651 16:-0.5416796 17:-0.5965995 18:-0.60359021 19:-0.54549982 20:-0.59700345 21:-0.60593652 22:-0.26702718 23:-0.75729705 24:0.075362415 25:-0.087286314 26:0.54612647 27:0.43441999 28:-0.80346887 29:-0.88488642 30:-0.76107404 31:-0.86311371 32:-0.93431789 33:-0.88548415 34:0.38986194 35:0.46456489 36:0.39945536 
-0 -0 -0 0 0 4 1:0.32157604 2:-0.93209502 3:-0.051225538 4:-0.95943482 5:-0.99585048 6:-0.84258851 7:-0.7852936 8:0.74889577 9:-0.94226833 10:0.89396277 11:0.91738914 12:0.70797787 13:0.14929856 14:0.10813641 15:0.24320065 16:-0.40148449 17:-0.57895149 18:-0.5049677 19:-0.40427441 20:-0.57648656 21:-0.5077443 22:-0.30134433 23:-0.54788322 24:0.16412528 25:-0.34766373 26:0.46724667 27:0.41110792 28:-0.79113925 29:-0.83196152 30:-0.70110801 31:-0.79112758 32:-0.90017819 33:-0.85625567 34:0.34440609 35:0.368422 36:0.39653989 
-0 -0 -0 1.9345391518197537 0 0 1:0.11888708 2:-0.088727034 3:0.96617059 4:-0.94112451 5:-0.9026614 6:-0.99766866 7:-0.94709109 8:-0.91882129 9:0.86773934 10:0.487808 11:-0.4797116 12:0.14087105 13:0.14972965 14:0.20595678 15:0.17563385 16:-0.67594258 17:-0.42017997 18:-0.61427791 19:-0.67623498 20:-0.42085153 21:-0.61803771 22:-0.036069947 23:-0.63053601 24:-0.036936406 25:-0.15496084 26:-0.18044445 27:-0.407741 28:-0.81979883 29:-0.83877742 30:-0.77733852 31:-0.87083873 32:-0.62667822 33:-0.20712045 34:0.4401064 35:0.39022589 36:0.41756567 
-0 -2.9877781901312477 -0 0 0 0 1:0.039686572 2:-0.97949856 3:-0.084451875 4:-0.95898357 5:-0.99903351 6:-0.81695185 7:-0.97824964 8:0.92222251 9:-0.92462921 10:-0.37363817 11:0.96054984 12:-0.46689126 13:-0.11039037 14:-0.12499821 15:0.17298755 16:-0.64413471 17:-0.63484492 18:-0.63573193 19:-0.64505391 20:-0.59456711 21:-0.63928976 22:0.030084815 23:-0.75962169 24:-0.16590314 25:-0.11820166 26:0.53623735 27:0.39263912 28:-0.81749247 29:-0.91577407 30:-0.80087827 31:-0.87233128 32:-0.95178966 33:-0.90294062 34:0.45330026 35:0.54385113 36:0.57566042 
-0 -0 -0 4 0 4 1:-0.10556538 2:0.043768117 3:0.97323603 4:-0.95817989 5:-0.8847801 6:-0.99739408 7:-0.95502257 8:-0.93873959 9:0.89524114 10:0.5657538 11:0.70085551 12:0.23303945 13:0.18148821 14:0.18762703 15:0.031443362 16:-0.61075447 17:-0.65598198 18:-0.63704349 19:-0.61024436 20:-0.65638989 21:-0.64099432 22:-0.35148998 23:-0.84000938 24:0.28562353 25:0.048567152 26:-0.34689199 27:-0.37333562 28:-0.84374583 29:-0.85043547 30:-0.85295012 31:-0.87126832 32:-0.49152914 33:-0.29833557 34:0.40764923 35:0.41382421 36:0.31519174 
-0 -0 -0 3.072012183299798 0 0 1:-0.09604888 2:-0.0054891436 3:0.97301661 4:-0.96061824 5:-0.87935682 6:-0.997885 7:-0.96023429 8:-0.93254707 9:0.89422147 10:0.47883288 11:0.64612055 12:0.535237 13:-0.068859006 14:0.2854109 15:0.23084333 16:-0.55830451 17:-0.55648381 18:-0.63463157 19:-0.5612677 20:-0.55376141 21:-0.63632877 22:-0.13997562 23:-0.77179479 24:0.17373905 25:0.03005797 26:-0.28096651 27:-0.39108676 28:-0.84120382 29:-0.80675083 30:-0.74031178 31:-0.87434553 32:-0.52622893 33:-0.21627164 34:0.48014975 35:0.46735234 36:0.3529569 
-1.2387448350297867 -0 -0 4 0.19554360480038113 4 1:-0.83164297 2:-0.39688598 3:0.001165629 4:-0.97403658 5:-0.95037916 6:-0.243827 7:0.39947718 8:-0.6233135 9:-0.74563602 10:-0.62173345 11:0.60679071 12:-0.72791818 13:0.25974789 14:0.75233457 15:0.23112283 16:-0.61973726 17:-0.48473639 18:-0.64931002 19:-0.61446236 20:-0.36151763 21:-0.65081372 22:-0.28893009 23:-0.31194846 24:-0.060426076 25:0.75989006 26:0.025775856 27:0.32997054 28:-0.87701265 29:-0.93098647 30:-0.60817243 31:-0.19728925 32:-0.81494921 33:-0.80180042 34:0.20776586 35:0.39004034 36:0.28832638 
-0 -0 -0 4 0 0 1:0.083032541 2:-0.97671111 3:-0.055164205 4:-0.95424074 5:-0.99869653 6:-0.79605275 7:-0.96667077 8:0.91187878 9:-0.92574497 10:0.1763157 11:0.89929974 12:-0.058524838 13:-0.06533299 14:0.24774496 15:0.27137033 16:-0.50755836 17:-0.30134065 18:-0.34038651 19:-0.51106475 20:-0.30109136 21:-0.34383011 22:-0.34898669 23:-0.48318295 24:-0.13250509 25:-0.14189903 26:0.5389524 27:0.39838298 28:-0.7747405 29:-0.75589438 30:-0.64377356 31:-0.84087007 32:-0.86066959 33:-0.8280652 34:0.39244672 35:0.21359272 36:0.085205166 
-0 -0 -0 0 0 2.7560540086909451 1:-0.025340667 2:-0.25460955 3:0.93754025 4:-0.95682949 5:-0.89096537 6:-0.98308282 7:-0.97728242 8:-0.78377355 9:0.76363351 10:0.66438962 11:0.68587135 12:0.94767665 13:0.087867773 14:0.15323332 15:0.22091229 16:-0.55227349 17:-0.64944496 18:-0.59215134 19:-0.55555088 20:-0.64919445 21:-0.59476753 22:-0.28524505 23:-0.74543881 24:0.12711587 25:-0.031468035 26:-0.093354556 27:-0.33676225 28:-0.82247219 29:-0.85332273 30:-0.78823477 31:-0.87256953 32:-0.69767502 33:-0.3232406 34:0.50875 35:0.46668085 36:0.35916416 
-0 -0 -0 0 0 2.9623657748195158 1:0.15146266 2:-0.9722884 3:0.041515308 4:-0.95027236 5:-0.99636022 6:-0.83534563 7:-0.93498848 8:0.89648287 9:-0.94157411 10:0.87394623 11:0.9589007 12:0.82562505 13:0.16237369 14:0.11869882 15:0.20184706 16:-0.52558234 17:-0.57223851 18:-0.52192145 19:-0.52671488 20:-0.57046645 21:-0.52607966 22:-0.35644139 23:-0.69523369 24:0.19804611 25:-0.21254638 26:0.49818465 27:0.34841166 28:-0.83395677 29:-0.90529943 30:-0.77964768 31:-0.87049681 32:-0.94432304 33:-0.88736082 34:0.4660471 35:0.53689326 36:0.41568377 
-0 -0 -0 0 0 1.7517121281629946 1:-0.01188974 2:-0.97853366 3:-0.079408688 4:-0.95340362 5:-0.99840172 6:-0.80598145 7:-0.97699767 8:0.91891221 9:-0.92258082 10:-0.45477566 11:0.92259494 12:-0.59109001 13:0.049927503 14:0.088516004 15:0.11683847 16:-0.50669956 17:-0.60471403 18:-0.53764588 19:-0.51098249 20:-0.60070957 21:-0.543292 22:-0.2931335 23:-0.66419727 24:0.14498962 25:-0.019840864 26:0.49385445 27:0.43192345 28:-0.77916774 29:-0.8889791 30:-0.77023539 31:-0.84085822 32:-0.93475115 33:-0.88987331 34:0.33440727 35:0.50269033 36:0.41083569 
-0 -0 -0 4 0 4 1:-0.02714306 2:-0.03474009 3:0.96936327 4:-0.92891345 5:-0.85912037 6:-0.99562269 7:-0.96368336 8:-0.91556531 9:0.88078981 10:0.64701377 11:0.65710662 12:0.61403897 13:0.16761188 14:0.05981939 15:0.066148505 16:-0.49560886 17:-0.71495182 18:-0.5443318 19:-0.49678371 20:-0.70805297 21:-0.54988073 22:-0.43571707 23:-0.58671174 24:0.20063793 25:-0.017538467 26:-0.30616093 27:-0.36854329 28:-0.7740424 29:-0.78690734 30:-0.76049308 31:-0.8369493 32:-0.49266646 33:-0.26149706 34:0.46818782 35:0.25926413 36:0.34230854 
-0 -0 -0 4 0 0 1:0.11735788 2:-0.062033132 3:0.96534153 4:-0.94995417 5:-0.86673355 6:-0.99712496 7:-0.95198862 8:-0.91092002 9:0.86471953 10:0.45594512 11:-0.13986814 12:0.52050738 13:-0.076687828 14:0.19747764 15:0.20818627 16:-0.57553237 17:-0.55014598 18:-0.61571426 19:-0.57813922 20:-0.55070287 21:-0.61849807 22:-0.10314172 23:-0.70817522 24:-0.019393128 25:-0.15758291 26:-0.2214299 27:-0.37106894 28:-0.85257112 29:-0.82885303 30:-0.81080188 31:-0.89333554 32:-0.58877908 33:-0.28167553 34:0.39050841 35:0.3327134 36:0.24737239 
-0 -0 -0.48876907565376659 0 0 0 1:0.34737026 2:-0.92200692 3:-0.052636135 4:-0.94583112 5:-0.99377161 6:-0.85638946 7:-0.74545078 8:0.71383189 9:-0.94662855 10:0.92559671 11:0.91935578 12:0.78188403 13:-0.039251852 14:0.203412 15:0.28775953 16:-0.42042212 17:-0.3388329 18:-0.22274256 19:-0.42522884 20:-0.33962584 21:-0.22673764 22:-0.27301108 23:-0.62764513 24:0.0092766017 25:-0.42158964 26:0.44954929 27:0.36440381 28:-0.70530453 29:-0.65150323 30:-0.50678355 31:-0.68904069 32:-0.79549669 33:-0.75897114 34:0.44220685 35:0.38861635 36:0.36723404 
-0 -0 -0 0 0 4 1:0.030071873 2:-0.97016848 3:-0.14810042 4:-0.95418982 5:-0.99742417 6:-0.80764405 7:-0.97701525 8:0.88796942 9:-0.89192545 10:-0.65577349 11:0.91000688 12:-0.77811074 13:0.093427251 14:0.12954023 15:0.28762276 16:-0.47554523 17:-0.65894948 18:-0.46158521 19:-0.47939392 20:-0.65767967 21:-0.46262605 22:-0.20936281 23:-0.57934768 24:0.10946942 25:-0.10045807 26:0.50142179 27:0.49090696 28:-0.8146589 29:-0.87682657 30:-0.71379334 31:-0.87090224 32:-0.92827252 33:-0.85963351 34:0.3785321 35:0.32893063 36:0.38153444 
-0 -4 -0 4 0 0 1:0.4751256 2:-0.85975305 3:0.03669552 4:-0.95991281 5:-0.9860544 6:-0.8024501 7:-0.54841441 8:0.50311003 9:-0.93124146 10:0.93185869 11:0.18268934 12:0.34408233 13:0.30753416 14:0.4696288 15:0.0689851 16:-0.70186631 17:-0.57633117 18:-0.59315786 19:-0.69211186 20:-0.54675698 21:-0.59812213 22:-0.38309445 23:-0.43524313 24:0.029821627 25:-0.53269252 26:0.41329804 27:0.30377669 28:-0.8251364 29:-0.88324599 30:-0.71429342 31:-0.68864843 32:-0.92298525 33:-0.8467378 34:0.41054376 35:0.22738963 36:0.4984134 
-0 -0 -4 4 0 4 1:-0.022642362 2:0.42204669 3:0.90110731 4:-0.93327132 5:-0.88526877 6:-0.9698774 7:-0.96633436 8:-0.66378885 9:0.63409119 10:-0.20937254 11:0.1537405 12:-0.97037884 13:0.047345005 14:0.03051786 15:0.24898088 16:-0.37889004 17:-0.56507901 18:-0.55216197 19:-0.38435332 20:-0.55487429 21:-0.55409044 22:-0.17303771 23:-0.6447029 24:0.04525202 25:-0.027088667 26:-0.64955075 27:-0.31357526 28:-0.80031008 29:-0.79332504 30:-0.77679659 31:-0.85658229 32:-0.1272494 33:-0.3518691 34:0.16584524 35:0.19148522 36:0.30462412 
-3.5397269552372634 -0 -0 4 0.2894368584107892 4 1:-0.058149681 2:-0.16978376 3:0.66158078 4:-0.93706244 5:0.031735939 6:0.38157044 7:-0.96152076 8:-0.37248991 9:0.34093619 10:-0.73107502 11:-0.63597956 12:0.94060785 13:-0.47348472 14:0.23504711 15:0.56501418 16:-0.56129946 17:-0.66355226 18:-0.54553554 19:-0.53047905 20:-0.66332414 21:-0.51812804 22:-0.14426589 23:-0.73506007 24:0.080358039 25:-0.027745877 26:-0.017144988 27:-0.040408642 28:-0.77708125 29:-0.63655544 30:-0.48897922 31:-0.84049379 32:-0.62245999 33:-0.53729679 34:-0.086513394 35:-0.063672998 36:0.73765817 
-0 -0 -0 4 0 2.4964522016578932 1:0.11534185 2:-0.61577602 3:0.73345818 4:-0.87995571 5:-0.93094966 6:-0.92903608 7:-0.9193511 8:-0.17063029 9:0.099702599 10:0.59470357 11:0.50471005 12:0.96856109 13:0.15244635 14:0.38021717 15:0.035231428 16:-0.65226921 17:-0.64640433 18:-0.553935 19:-0.65266802 20:-0.6331408 21:-0.5589828 22:-0.3888236 23:-0.55410619 24:0.081408737 25:-0.17649046 26:0.19711983 27:-0.17902106 28:-0.79690422 29:-0.8827728 30:-0.83132148 31:-0.85184749 32:-0.86653531 33:-0.55537014 34:0.47181231 35:0.37833139 36:0.43468572 
-0 -4 -0 0 0 0 1:0.12605344 2:-0.97593362 3:0.056814215 4:-0.95633601 5:-0.9951909 6:-0.83948342 7:-0.95110609 8:0.91081039 9:-0.93995152 10:0.92258313 11:0.94473664 12:0.88689675 13:0.31364674 14:0.18709252 15:-0.045590648 16:-0.612363 17:-0.6114162 18:-0.52435766 19:-0.60289148 20:-0.61187642 21:-0.52743733 22:-0.21206577 23:-0.50667854 24:0.10501762 25:-0.18724899 26:0.54778491 27:0.28854044 28:-0.74152079 29:-0.85825093 30:-0.70610825 31:-0.81141807 32:-0.91914315 33:-0.83875601 34:0.56487678 35:0.53513664 36:0.54026448 
-3.8691551568280991 -0 -0 0 1.5213016174189293 0 1:0.51460108 2:-0.74913987 3:-0.39902209 4:-0.97473547 5:-0.99735378 6:-0.90444234 7:-0.47952276 8:0.15096343 9:-0.65013595 10:-0.44948703 11:0.92666621 12:-0.71990141 13:-0.068976955 14:0.14470465 15:0.28182469 16:-0.62520969 17:-0.64828917 18:-0.65757557 19:-0.62756528 20:-0.64772897 21:-0.65651564 22:-0.27764965 23:-0.78687248 24:0.094886734 25:-0.56507267 26:0.35506167 27:0.65899749 28:-0.88537805 29:-0.92791236 30:-0.87787116 31:-0.70159089 32:-0.9381073 33:-0.89218658 34:0.45682806 35:0.61951345 36:0.35963525 
-0 -0 -0 4 0 0.66512784437430272 1:0.46890015 2:-0.59299372 3:0.53673466 4:-0.65830839 5:-0.93007064 6:-0.75409793 7:-0.41546063 8:-0.22451107 9:-0.34118502 10:0.062348915 11:-0.66505268 12:0.6172174 13:0.03912577 14:-0.48592742 15:0.16080863 16:-0.51280591 17:-0.57373969 18:-0.63859569 19:-0.51712596 20:-0.38968338 21:-0.64238635 22:-0.25399249 23:-0.50434094 24:-0.14370902 25:-0.50356414 26:0.19400497 27:-0.037869314 28:-0.70176984 29:-0.87267734 30:-0.80204576 31:-0.62707613 32:-0.85961361 33:-0.68967434 34:0.34634412 35:0.013118229 36:0.37213383 
-0 -4 -0 3.9227857921956111 0 0 1:0.12381304 2:-0.98009207 3:0.026246471 4:-0.96359489 5:-0.99620027 6:-0.85575404 7:-0.95562388 8:0.92597114 9:-0.95053204 10:0.91528621 11:0.93142072 12:0.83078959 13:0.051765745 14:0.22749358 15:0.21990134 16:-0.53885308 17:-0.58283664 18:-0.58057611 19:-0.5428263 20:-0.58292875 21:-0.58337414 22:-0.13444455 23:-0.58448112 24:0.015959234 25:-0.13503691 26:0.54348341 27:0.32572738 28:-0.77913356 29:-0.8329294 30:-0.67818716 31:-0.84453287 32:-0.90466232 33:-0.83448832 34:0.49467126 35:0.45762073 36:0.49520843 
-0 -0 -0 4 0 4 1:-0.026720664 2:-0.96756614 3:-0.16506287 4:-0.97005667 5:-0.99716255 6:-0.79226825 7:-0.98343477 8:0.87837386 9:-0.87612806 10:-0.56819978 11:0.91648425 12:-0.80085653 13:-0.16718487 14:-0.081838555 15:0.21690419 16:-0.52664313 17:-0.6481697 18:-0.65382502 19:-0.52607653 20:-0.61812918 21:-0.65582634 22:-0.18516069 23:-0.64390738 24:0.063063439 25:0.0023503176 26:0.51663781 27:0.43902945 28:-0.81603804 29:-0.87352954 30:-0.72413214 31:-0.86281853 32:-0.92711923 33:-0.86774977 34:0.31781311 35:0.43897233 36:0.53035148 
-0 -0 -0 4 0 0 1:-0.066502056 2:0.083636765 3:0.97733885 4:-0.95668583 5:-0.89681362 6:-0.99803895 7:-0.96863257 8:-0.94120504 9:0.91103164 10:0.40064731 11:0.032893335 12:-0.67150273 13:-0.1271542 14:0.23705999 15:0.39081645 16:-0.57734658 17:-0.5730356 18:-0.48961834 19:-0.57821519 20:-0.57285388 21:-0.48277548 22:-0.028661075 23:-0.57387952 24:0.043427334 25:0.028015495 26:-0.37554371 27:-0.39784802 28:-0.76063924 29:-0.76103096 30:-0.70027108 31:-0.81874177 32:-0.4132304 33:-0.18622539 34:0.35918056 35:0.30562831 36:0.39766776 
-0 -0 -0 4 0 0 1:-0.032173658 2:0.28471512 3:0.94855265 4:-0.96033015 5:-0.88214651 6:-0.98739487 7:-0.97799634 8:-0.82355778 9:0.80372648 10:0.35286862 11:-0.21994824 12:-0.92958757 13:0.15374777 14:0.069231964 15:0.1561464 16:-0.43655279 17:-0.45010422 18:-0.51567001 19:-0.43884905 20:-0.44451163 21:-0.52107631 22:-0.22377574 23:-0.54946247 24:0.028298873 25:0.0025341311 26:-0.55958901 27:-0.35730553 28:-0.82104546 29:-0.8005989 30:-0.78129804 31:-0.86627042 32:-0.23995164 33:-0.28882342 34:0.37671663 35:0.15431871 36:0.31366055 
-0 -0 -0 1.29884599416871 0 0 1:-0.0016154175 2:-0.97854146 3:-0.12108157 4:-0.9719991 5:-0.99891688 6:-0.82724461 7:-0.98645354 8:0.91866811 9:-0.91306312 10:-0.32627887 11:0.91831316 12:-0.54793693 13:-0.19050863 14:-0.064395311 15:0.22094201 16:-0.57999914 17:-0.64998696 18:-0.54643364 19:-0.57763181 20:-0.6236672 21:-0.54961569 22:0.012450983 23:-0.50800828 24:-0.080769897 25:-0.025332541 26:0.52436986 27:0.41795285 28:-0.76923424 29:-0.87096195 30:-0.73504759 31:-0.83471066 32:-0.92593209 33:-0.87277498 34:0.37416413 35:0.38434971 36:0.51752311 
-3.9316032103478489 -0 -0 0 0 0 1:0.063421207 2:0.21009793 3:0.95953019 4:-0.9545365 5:-0.86171577 6:-0.98989537 7:-0.971942 8:-0.87101812 9:0.84478146 10:0.60612002 11:-0.54524782 12:-0.89939435 13:0.12651568 14:0.0089471618 15:-0.04039914 16:-0.53476176 17:-0.55878315 18:-0.55756411 19:-0.53716157 20:-0.54557813 21:-0.56044003 22:-0.24881726 23:-0.75793848 24:0.17725177 25:-0.11030278 26:-0.49131 27:-0.35989789 28:-0.85740107 29:-0.84392379 30:-0.85890262 31:-0.90043844 32:-0.34142543 33:-0.32203694 34:0.49569848 35:0.3130733 36:0.26253049 
-0 -0 -0 4 0 0 1:-0.037850637 2:-0.97389452 3:-0.10838418 4:-0.95216145 5:-0.99708545 6:-0.80012671 7:-0.97314685 8:0.90213097 9:-0.90974126 10:-0.64870166 11:0.87561701 12:-0.78502914 13:0.11823951 14:0.14215204 15:0.21387135 16:-0.47586688 17:-0.53913258 18:-0.22202334 19:-0.47905745 20:-0.53860383 21:-0.22949023 22:-0.33939957 23:-0.3504459 24:-0.14542464 25:-0.011616234 26:0.48667601 27:0.45623608 28:-0.69834012 29:-0.87496684 30:-0.74320422 31:-0.78331478 32:-0.92627781 33:-0.87642081 34:0.21932725 35:0.14420416 36:0.23132712 
-0 -0 -0 4 0 0 1:-0.13437812 2:-0.3818148 3:0.88257346 4:-0.95003643 5:-0.91097768 6:-0.97006804 7:-0.93670062 8:-0.62629476 9:0.56790015 10:0.62144813 11:0.75360611 12:0.95439202 13:-0.20121275 14:0.28149464 15:0.42228658 16:-0.56349123 17:-0.5756737 18:-0.53998032 19:-0.56061495 20:-0.57320421 21:-0.5295876 22:-0.087653356 23:-0.69075381 24:-0.029121284 25:0.081938847 26:0.01898368 27:-0.33681011 28:-0.74716913 29:-0.77503872 30:-0.68986769 31:-0.79357854 32:-0.72225798 33:-0.27602258 34:0.51773373 35:0.51242297 36:0.52642334 
-1.9754055934874355 -0 -4 4 0 0 1:0.026429959 2:0.39033336 3:0.91248425 4:-0.94139813 5:-0.8714354 6:-0.97194914 7:-0.97119837 8:-0.69994769 9:0.67466507 10:-0.027883405 11:-0.037246527 12:-0.96563814 13:0.10843824 14:0.0035916394 15:0.15420181 16:-0.37679295 17:-0.49450417 18:-0.56599883 19:-0.38115924 20:-0.48057483 21:-0.57081704 22:-0.12303011 23:-0.5183669 24:-0.15141984 25:-0.06697117 26:-0.64663863 27:-0.33939819 28:-0.80005009 29:-0.80903359 30:-0.76160752 31:-0.86006858 32:-0.13985286 33:-0.30653463 34:0.20026273 35:0.041706984 36:0.20713927 
-2.7845035634479354 -0 -0 4 0 0 1:0.44302277 2:-0.57878326 3:0.61203129 4:-0.78143213 5:-0.94054132 6:-0.84950409 7:-0.52023974 8:-0.26299297 9:-0.20030958 10:0.37749778 11:-0.79557413 12:0.22415682 13:0.041858742 14:0.49330104 15:0.29373006 16:-0.67847399 17:-0.47340103 18:-0.6227022 19:-0.68127651 20:-0.43854702 21:-0.62138658 22:-0.21012553 23:-0.48215348 24:-0.029118823 25:-0.51061137 26:0.16979547 27:-0.079787752 28:-0.78314897 29:-0.93330146 30:-0.83554413 31:-0.67800789 32:-0.88478539 33:-0.66571067 34:0.2715822 35:0.072938984 36:0.35099138 
-0 -0 -4 2.255494438816835 0 0 1:-0.25466937 2:-0.22766885 3:0.86954428 4:-0.71806457 5:-0.89966452 6:-0.87783119 7:-0.73006052 8:-0.81627556 9:0.5533297 10:0.727985 11:0.93034814 12:0.7324284 13:-0.11567329 14:0.44133372 15:0.40510647 16:-0.393739 17:-0.10179876 18:-0.41739826 19:-0.39672404 20:-0.078693272 21:-0.41015909 22:-0.34524106 23:-0.48963174 24:0.089699148 25:0.19386588 26:-0.12888634 27:-0.30395801 28:-0.61696176 29:-0.73423528 30:-0.67265918 31:-0.65188565 32:-0.6051384 33:-0.31579912 34:0.41788519 35:0.37187689 36:0.27374966 
-0 -0 -0 4 0 0 1:-0.57476937 2:-0.24640924 3:0.66151799 4:-0.65473183 5:-0.95842214 6:-0.5897933 7:-0.16729515 8:-0.82836539 9:0.013315463 10:0.65278915 11:0.90892423 12:0.48195214 13:-0.17766531 14:0.61334135 15:0.45727122 16:-0.54266828 17:-0.19172595 18:-0.53304494 19:-0.54138399 20:-0.1229265 21:-0.51914228 22:-0.41676638 23:-0.56039508 24:0.14539919 25:0.48794172 26:-0.1090596 27:-0.15184852 28:-0.72151508 29:-0.86922047 30:-0.70929061 31:-0.47312307 32:-0.69601659 33:-0.52843985 34:0.45768687 35:0.47121241 36:0.38383388 
-0 -0 -0.41858863011796366 0 0 2.5281400038575099 1:-0.61182694 2:-0.35822114 3:0.30485802 4:-0.30270196 5:-0.91908583 6:0.23407229 7:0.088966941 8:-0.66632427 9:-0.39848509 10:-0.58036263 11:0.85294121 12:-0.18473509 13:-0.20646314 14:-0.69423473 15:0.32834006 16:-0.5467649 17:-0.40413888 18:-0.60203189 19:-0.54370478 20:-0.090028998 21:-0.5987338 22:-0.076578143 23:-0.46101151 24:0.049029363 25:0.5506326 26:-0.0070853346 27:0.10909363 28:-0.46750389 29:-0.88819095 30:-0.55968893 31:-0.22061721 32:-0.77188777 33:-0.68690752 34:-0.026057067 35:0.71884358 36:0.063151199 
-0 -0 -0 1.0967290372277614 0.90099761660577904 0 1:-0.88740283 2:-0.28136786 3:-0.28578147 4:-0.98702167 5:-0.93932017 6:-0.80679444 7:0.58385575 8:-0.77908438 9:-0.77224564 10:-0.16447132 11:-0.68495576 12:-0.53905752 13:-0.18634818 14:-0.03083335 15:0.3474826 16:-0.55351007 17:-0.42740811 18:-0.56273628 19:-0.55162896 20:-0.40784669 21:-0.558535 22:-0.18706467 23:-0.39617158 24:-0.1578555 25:0.87205551 26:-0.055887626 27:0.54791523 28:-0.8205613 29:-0.90511694 30:-0.74645463 31:0.042840148 32:-0.75175684 33:-0.86579627 34:0.42401562 35:0.2896913 36:0.28824206 
-0 -0 -1.2440120255668699 0 0 0 1:-0.96533129 2:-0.14458508 3:-0.1664332 4:-0.99828966 5:-0.93762565 6:-0.93482591 7:0.86538122 8:-0.90542831 9:-0.92327769 10:-0.55678658 11:-0.095307686 12:-0.66742045 13:0.13857002 14:0.075069844 15:0.24118471 16:-0.44780844 17:-0.48527195 18:-0.4603035 19:-0.45058206 20:-0.4802059 21:-0.46372337 22:-0.19764025 23:-0.53805666 24:-0.027371298 25:0.90555484 26:-0.19436747 27:0.47869902 28:-0.81027431 29:-0.87392 30:-0.73575864 31:0.11478235 32:-0.63596172 33:-0.87137465 34:0.14560788 35:0.29911748 36:0.44429379 
-0 -0.30532231597952936 -0 4 0 4 1:0.25361759 2:-0.92919522 3:0.20083147 4:-0.95318393 5:-0.98326575 6:-0.84547677 7:-0.85754865 8:0.74514307 9:-0.86767879 10:0.96415894 11:0.92430002 12:0.94175505 13:0.066817418 14:0.096916925 15:0.26490029 16:-0.48842535 17:-0.66332319 18:-0.50512575 19:-0.49266098 20:-0.6599288 21:-0.50686263 22:-0.2048477 23:-0.55393366 24:0.030013626 25:-0.30157943 26:0.47554752 27:0.21366489 28:-0.80877924 29:-0.89678649 30:-0.78081017 31:-0.82434965 32:-0.93786526 33:-0.84807309 34:0.44307963 35:0.35125202 36:0.48503439 
-0 -0 -0 4 0 1.5824776133524514 1:-0.021824838 2:0.088559606 3:0.97391976 4:-0.940453 5:-0.87179368 6:-0.99651266 7:-0.96986622 8:-0.92702516 9:0.89820129 10:0.42375747 11:0.0002628198 12:-0.61619766 13:0.28058271 14:0.29359019 15:0.054320446 16:-0.58812848 17:-0.59947503 18:-0.51871425 19:-0.58159164 20:-0.59608165 21:-0.52446815 22:-0.49392276 23:-0.50289131 24:0.21971429 25:-0.027545115 26:-0.32953672 27:-0.40259706 28:-0.82091513 29:-0.77056667 30:-0.68885999 31:-0.87098933 32:-0.46211652 33:-0.17307865 34:0.32547462 35:0.20460262 36:0.35829317 
-0 -0 -0 4 0 0 1:0.069538411 2:0.35085561 3:0.9223389 4:-0.95720735 5:-0.85040905 6:-0.96661029 7:-0.97178329 8:-0.73771367 9:0.71263314 10:0.54548385 11:-0.54857411 12:-0.96153197 13:0.28221761 14:0.12910741 15:0.011260139 16:-0.45147524 17:-0.49173917 18:-0.57362317 19:-0.44604674 20:-0.49065488 21:-0.57793591 22:-0.20561352 23:-0.45858456 24:-0.051407563 25:-0.14075115 26:-0.59593917 27:-0.38631762 28:-0.78415365 29:-0.77856896 30:-0.69005794 31:-0.84753195 32:-0.18454067 33:-0.19978885 34:0.45698386 35:0.15002163 36:0.29498293 
-0 -0 -0 0 0 4 1:-0.80655542 2:-0.46092164 3:-0.29711881 4:-0.98859366 5:-0.9226241 6:-0.87817115 7:0.31075701 8:-0.49759696 9:-0.78309696 10:-0.76104595 11:0.41719541 12:-0.87033433 13:-0.028047492 14:0.1435209 15:0.19152352 16:-0.50327104 17:-0.67281287 18:-0.46722068 19:-0.50748836 20:-0.67217438 21:-0.47237576 22:-0.19536108 23:-0.67098464 24:0.076236201 25:0.73032689 26:0.10488707 27:0.57399554 28:-0.82362094 29:-0.86055041 30:-0.76302534 31:-0.20891959 32:-0.81509251 33:-0.86729542 34:0.24149646 35:0.40187282 36:0.43447399 
-0 -0 -0 4 0 0 1:0.040560216 2:-0.12004407 3:0.96496997 4:-0.95461447 5:-0.87235042 6:-0.99537729 7:-0.97604376 8:-0.88623731 9:0.86387405 10:0.80486825 11:0.68579227 12:0.81929805 13:0.17272399 14:0.064358804 15:0.03765175 16:-0.52171147 17:-0.65712622 18:-0.54124147 19:-0.52241959 20:-0.65077917 21:-0.54648681 22:-0.33244509 23:-0.50327116 24:0.034391935 25:-0.085124801 26:-0.2089796 27:-0.35853139 28:-0.81190759 29:-0.83376795 30:-0.80349173 31:-0.86895751 32:-0.60156024 33:-0.29757945 34:0.54973035 35:0.24516374 36:0.30026845 
-0.032081437876132532 -0 -0 0 0 0 1:-0.94575948 2:-0.23918927 3:-0.14854282 4:-0.99663987 5:-0.94473939 6:-0.91311256 7:0.791858 8:-0.82861696 9:-0.92721753 10:-0.73967692 11:0.18031195 12:-0.70976654 13:0.018941666 14:0.15138992 15:0.20132374 16:-0.51556642 17:-0.50243437 18:-0.47486508 19:-0.51994291 20:-0.50230446 21:-0.4796238 22:-0.068251261 23:-0.59830265 24:-0.050435011 25:0.8806567 26:-0.083292261 27:0.47999368 28:-0.83010986 29:-0.87509924 30:-0.77852838 31:0.05261327 32:-0.71682868 33:-0.89175885 34:0.22655862 35:0.31720525 36:0.35399166 
-0 -0 -0 0 0 2.0861003952357233 1:-0.060576843 2:-0.97407486 3:-0.10160409 4:-0.95356175 5:-0.99667851 6:-0.80701054 7:-0.96878416 8:0.90302506 9:-0.91490538 10:-0.7085682 11:0.91445575 12:-0.79602636 13:0.19473822 14:-0.040770006 15:0.042010701 16:-0.61888114 17:-0.68685836 18:-0.52378759 19:-0.61763009 20:-0.66514866 21:-0.52931726 22:-0.27183435 23:-0.6646168 24:0.20865436 25:0.027962796 26:0.49840037 27:0.44171688 28:-0.79600099 29:-0.89734024 30:-0.81672354 31:-0.84337688 32:-0.93979715 33:-0.91209248 34:0.23293464 35:0.60146114 36:0.37139168 
-0 -0 -0 0 0 3.3288489585481518 1:-0.86948579 2:-0.25014461 3:0.26264499 4:-0.93315351 5:-0.97575734 6:-0.46525618 7:0.54706191 8:-0.83360513 9:-0.68217016 10:-0.14987662 11:0.9578704 12:-0.15968165 13:-0.13274621 14:0.63618444 15:0.37479001 16:-0.53764601 17:-0.43100833 18:-0.58874257 19:-0.53863699 20:-0.35408443 21:-0.58204745 22:-0.15367921 23:-0.60250379 24:-0.076862923 25:0.78406486 26:-0.095518225 27:0.13012162 28:-0.8469916 29:-0.89295425 30:-0.73408075 31:-0.13519592 32:-0.71881214 33:-0.78329204 34:0.46269867 35:0.62877153 36:0.40890453 
-0 -0 -0 4 0 0 1:-0.0048229935 2:0.29377834 3:0.94086391 4:-0.9187095 5:-0.88002959 6:-0.97942882 7:-0.9608158 8:-0.81394146 9:0.77735337 10:0.39055257 11:-0.35908289 12:-0.93268986 13:-0.17456225 14:0.35465721 15:0.38955575 16:-0.55984311 17:-0.31995149 18:-0.54349673 19:-0.55857653 20:-0.31061107 21:-0.53609674 22:-0.17237152 23:-0.69014753 24:0.02775344 25:-0.023610282 26:-0.55051958 27:-0.36940704 28:-0.81783147 29:-0.73621479 30:-0.66039181 31:-0.86831422 32:-0.21371405 33:-0.2121753 34:0.41448841 35:0.26868492 36:0.35373438 
-0 -0 -4 4 0 0 1:-0.0086147967 2:0.28413372 3:0.94773711 4:-0.9680076 5:-0.8651442 6:-0.98508615 7:-0.98421041 8:-0.81506403 9:0.80141134 10:0.21718396 11:-0.17599117 12:-0.93503671 13:0.082003275 14:0.11718395 15:0.18232392 16:-0.38971132 17:-0.40609593 18:-0.47352206 19:-0.39457717 20:-0.40443791 21:-0.4788562 22:-0.20575497 23:-0.58466735 24:0.049174957 25:-0.030608578 26:-0.52148017 27:-0.35701099 28:-0.82345197 29:-0.77217181 30:-0.75621926 31:-0.87314567 32:-0.26718684 33:-0.27725494 34:0.35362671 35:0.17478409 36:0.25655448 
-0 -0 -0 0 0 4 1:0.028879263 2:-0.97527909 3:-0.13084854 4:-0.96754664 5:-0.99737296 6:-0.81665429 7:-0.98351518 8:0.90718695 9:-0.90457756 10:-0.57589762 11:0.89660474 12:-0.78768616 13:-0.00035992387 14:0.071283954 15:0.13730119 16:-0.57082261 17:-0.65957117 18:-0.57064117 19:-0.57466649 20:-0.65392147 21:-0.57566841 22:-0.31323084 23:-0.64294034 24:0.15439072 25:-0.08240659 26:0.50696536 27:0.46668069 28:-0.81878986 29:-0.90371239 30:-0.81932937 31:-0.87369623 32:-0.94389645 33:-0.91234164 34:0.34967854 35:0.4904833 36:0.4012581 
-0 -0 -2.8708064155223978 4 0 0 1:-0.040473997 2:0.43406904 3:0.89930498 4:-0.96065509 5:-0.88842558 6:-0.9667481 7:-0.97673575 8:-0.6479954 9:0.62865529 10:-0.022923127 11:0.068644919 12:-0.98188183 13:-0.11054084 14:0.24473346 15:0.36438322 16:-0.51484042 17:-0.46165371 18:-0.59077015 19:-0.51692274 20:-0.46132846 21:-0.58490338 22:-0.10558308 23:-0.8098632 24:0.06225942 25:-0.043984986 26:-0.67469806 27:-0.34358168 28:-0.83093877 29:-0.77173716 30:-0.68170796 31:-0.87984499 32:-0.083088418 33:-0.26195264 34:0.28757888 35:0.45120209 36:0.31548974 
-0 -0 -0 0 0.609118365037434 0 1:0.14637636 2:-0.035761662 3:0.96459488 4:-0.9488559 5:-0.872988 6:-0.99725664 7:-0.93715964 8:-0.92265363 9:0.86179277 10:0.56743475 11:-0.59706749 12:-0.17360142 13:0.3227363 14:0.23073193 15:-0.049479814 16:-0.66083262 17:-0.5110805 18:-0.63338011 19:-0.65012065 20:-0.51117324 21:-0.63494656 22:-0.18590531 23:-0.51087289 24:0.072192522 25:-0.19795527 26:-0.2470724 27:-0.40553466 28:-0.8266184 29:-0.81947617 30:-0.7549442 31:-0.86858893 32:-0.5623722 33:-0.19998133 34:0.49326262 35:0.35290318 36:0.4020148 
-0 -0 -3.054432586136425 2.5112859769140203 0 0.57916845875099432 1:-0.96571455 2:-0.1971695 3:-0.05766521 4:-0.99736918 5:-0.94398141 6:-0.90555372 7:0.86729217 8:-0.86811669 9:-0.96209571 10:-0.85102493 11:0.30740655 12:-0.62776388 13:0.092154299 14:0.3212569 15:0.3323779 16:-0.44020671 17:-0.46208404 18:-0.50331811 19:-0.44440357 20:-0.45637785 21:-0.50095998 22:-0.06843946 23:-0.53890551 24:-0.09312267 25:0.92314035 26:-0.10888032 27:0.40094252 28:-0.83532372 29:-0.89226116 30:-0.79200464 31:0.13223036 32:-0.70927907 33:-0.89927928 34:0.16447798 35:0.32989005 36:0.34244273 
-0 -0 -0 4 0 0 1:0.23264155 2:-0.93672333 3:0.19078816 4:-0.95402926 5:-0.98458262 6:-0.84178427 7:-0.87749944 8:0.77159887 9:-0.87430604 10:0.961663 11:0.93459756 12:0.94973854 13:0.14748472 14:0.10515097 15:0.1807302 16:-0.49592894 17:-0.62969357 18:-0.49330027 19:-0.49793563 20:-0.6269559 21:-0.49843113 22:-0.2676902 23:-0.5620754 24:0.053349319 25:-0.27358364 26:0.4534843 27:0.21384004 28:-0.80026075 29:-0.83616551 30:-0.70081702 31:-0.8290978 32:-0.90122111 33:-0.80980768 34:0.44825567 35:0.33505547 36:0.5292636 
-0 -0 -0 4 0 4 1:-0.08406127 2:-0.0029438439 3:0.9695621 4:-0.9341615 5:-0.86917723 6:-0.99629582 7:-0.95215586 8:-0.92753399 9:0.88133405 10:0.54640091 11:0.59302324 12:0.54962253 13:0.043481441 14:0.066887945 15:0.14952173 16:-0.46462639 17:-0.65955522 18:-0.54298879 19:-0.46934877 20:-0.65346536 21:-0.54817466 22:-0.30187036 23:-0.68194158 24:0.19313556 25:0.05493461 26:-0.30141067 27:-0.35016771 28:-0.79330512 29:-0.81066457 30:-0.79175617 31:-0.83432292 32:-0.51045875 33:-0.30473185 34:0.4355623 35:0.16269827 36:0.27990376 
-0 -4 -0 0 0 0 1:0.13297191 2:-0.9725785 3:0.033925195 4:-0.94844633 5:-0.9966201 6:-0.80855778 7:-0.94398349 8:0.89743391 9:-0.93369329 10:0.85857412 11:0.97132509 12:0.83739084 13:0.21760242 14:0.21489742 15:0.030384842 16:-0.59937538 17:-0.66639726 18:-0.5250953 19:-0.59702851 20:-0.66665077 21:-0.53041524 22:-0.21927095 23:-0.65799536 24:0.20571301 25:-0.21383615 26:0.48242723 27:0.30208165 28:-0.78233313 29:-0.86353397 30:-0.71210213 31:-0.83424795 32:-0.9194472 33:-0.84525825 34:0.5706742 35:0.62065946 36:0.58785917 
